0,1,2,3,4,5,6,7,8,9,10,11,12,13,14,15,16,17,18,19,20,21,22,23,24,25,26,27,28,29,30,31,32,33,34,35,36,37,38,39,40,41,42,43,44,45,46,47,48,49,50,51,52,53,54,55,56,57,58,59,60,61,62,63,64,65,66,67,68,69,70,71,72,73,74,75,76,77,78,79,80,81,82,83,84,85,86,87,88,89,90,91,92,93,94,95,96,97,98,99,100,101,102,103,104,105,106,107,108,109,110,111,112,113,114,115,116,117,118,119,120,121,122,123,124,125,126,127,128,129,130,131,132,133,134,135,136,137,138,139,140,141,142,143,144,145,146,147,148,149,150,151,152,153,154,155,156,157,158,159,160,161,162,163,164,165,166,167,168,169,170,171,172,173,174,175,176,177,178,179,180,181,182,183,184,185,186,187,188,189,190,191,192,193,194,195,196,197,198,199,200,201,202,203,204,205,206,207,208,209,210,211,212,213,214,215,216,217,218,219,220,221,222,223,224,225,226,227,228,229,230,231,232,233,234,235,236,237,238,239,240,241,242,243,244,245,246,247,248,249,250,251,252,253,254,255,256,257,258,259,260,261,262,263,264,265,266,267,268,269,270,271,272,273,274,275,276,277,278,279,280,281,282,283,284,285,286,287,288,289,290,291,292,293,294,295,296,297,298,299,300,301,302,303,304,305,306,307,308,309,310,311,312,313,314,315,316,317,318,319,320,321,322,323,324,325,326,327,328,329,330,331,332,333,334,335,336,337,338,339,340,341,342,343,344,345,346,347,348,349,350,351,352,353,354,355,356,357,358,359,360,361,362,363,364,365,366,367,368,369,370,371,372,373,374,375,376,377,378,379,380,381,382,383,384,385,386,387,388,389,390,391,392,393,394,395,396,397,398,399,400,401,402,403,404,405,406,407,408,409,410,411,412,413,414,415,416,417,418,419,420,421,422,423,424,425,426,427,428,429,430,431,432,433,434,435,436,437,438,439,440,441,442,443,444,445,446,447,448,449,450,451,452,453,454,455,456,457,458,459,460,461,462,463,464,465,466,467,468,469,470,471,472,473,474,475,476,477,478,479,480,481,482,483,484,485,486,487,488,489,490,491,492,493,494,495,496,497,498,499,500,501,502,503,504,505,506,507,508,509,510,511,512,513,514,515,516,517,518,519,520,521,522,523,524,525,526,527,528,529,530,531,532,533,534,535,536,537,538,539,540,541,542,543,544,545,546,547,548,549,550,551,552,553,554,555,556,557,558,559,560,561,562,563,564,565,566,567,568,569,570,571,572,573,574,575,576,577,578,579,580,581,582,583,584,585,586,587,588,589,590,591,592,593,594,595,596,597,598,599
-0.08967166,0.105271146,0.05041841,0.0061098933,-0.013437398,0.00040044493,-0.086714074,0.07883106,0.036780886,0.006821491,-0.0024581503,-0.0098287,-0.08801291,0.07357758,0.04453609,0.007392491,0.007853478,-0.0069010435,-0.08091699,0.08042234,0.051118467,0.00914722,0.0054277163,-0.0039362703,-0.08063807,0.06364311,0.049929332,0.008130946,0.005143643,0.0037504947,-0.07928161,0.05885792,0.040383495,0.0076802596,0.013464793,0.007854518,-0.073609166,0.06564218,0.009903231,0.0077193216,0.013383177,0.005666344,-0.07568921,0.06425573,0.017418817,0.005420918,0.011557019,0.0054210625,-0.0730495,0.052808587,0.036997836,0.006552685,0.023378681,-0.0038964231,-0.07620817,0.050561428,0.009554756,0.0036358982,0.014238358,0.00094403786,-0.06864893,0.050478637,0.026350088,0.0026558454,0.01041188,-0.0023399352,-0.07516153,0.03666939,0.013603156,0.0020874443,0.0146221705,0.005062671,-0.06667368,0.03887851,0.01677898,0.0030201352,0.011407465,-0.0013701516,-0.06965826,0.027003922,0.009472906,0.0015642943,0.018209187,-0.00038297652,-0.073518,0.031998858,0.013639291,0.0020048192,0.008221963,-0.0056269844,-0.060777713,0.027600968,0.024722086,0.0022079102,0.01254169,0.003738677,-0.06666474,0.022782365,0.012968683,0.0019111352,0.006943314,-0.0017310672,-0.070497304,0.020121858,0.008497392,0.0025919657,0.012805234,0.005831247,-0.07083693,0.018683815,0.012072566,0.0039146882,0.0087902155,0.0048950873,-0.07205474,0.018177921,0.014223844,0.0031328,0.009386532,0.006297963,-0.054974142,0.020417402,0.01816123,0.003348957,-0.0018136901,0.009227065,-0.05517836,0.031434216,0.024200227,0.0024394754,0.0065654083,0.009926797,-0.048429783,0.01781168,0.011702342,0.005020873,-0.014887695,0.0037427503,-0.04879068,0.010367104,0.016559757,0.0059241448,-0.011857581,0.004617439,-0.05078047,0.023210106,0.02856052,0.0057570734,-0.019751396,-0.0049057226,-0.037503686,0.03177536,0.018353956,0.006645848,-0.022838973,-0.012443861,-0.028894529,0.022586443,0.021538362,0.008248404,-0.015202141,-0.01269668,-0.036560114,0.015183282,0.028337719,0.008698883,-0.01341736,-0.015031818,-0.036036607,0.00838734,0.030070985,0.008574425,-0.0070861126,-0.023072898,-0.024568608,0.005985545,0.018799739,0.0073076217,-0.018987197,-0.012631864,-0.020185998,0.023286423,0.027376933,0.008586431,-0.018374056,-0.015019355,-0.018364232,0.027026115,0.035256006,0.009349048,-0.014548438,-0.020146294,-0.018974746,-0.0075279116,0.05246268,0.009671801,-0.018350616,-0.015498228,-0.0087269535,-0.0038818396,0.04627328,0.007957867,-0.0065679452,-0.014701473,-0.016877014,-0.003988044,0.047698613,0.00935886,-0.005284032,-0.014944963,-0.0035860196,-0.021814145,0.06502452,0.007686425,-0.0113646975,-0.0074204155,-0.0077406103,-0.01933681,0.059532166,0.00786911,0.0010589588,-0.0035378707,-0.0054136,-0.006667354,0.047123343,0.0076370593,-0.010992478,0.0071223998,-0.00058222096,0.0034023477,0.051752396,0.008489044,0.0030447466,0.026351523,0.005740219,-0.010930667,0.059917346,0.0074686557,0.0020841863,0.03448604,0.00017443785,-0.008837925,0.053311598,0.0075269267,0.0004961555,0.043264017,0.0035871498,-0.009960419,0.047984272,0.00744592,-0.001632695,0.04952768,0.021749461,-0.015423935,0.053110447,0.009275075,0.013760963,0.06401308,0.024057617,0.004763481,0.056134675,0.008767244,0.020497099,0.06978255,0.011485576,-0.0016874297,0.061471727,0.007900067,0.030223863,0.086905584,0.014954033,-0.009619093,0.03636284,0.010244057,0.061517388,0.10320579,0.014609163,-0.017383894,0.02551116,0.009370852,0.07974218,0.118373156,0.01214644,-0.0065657143,0.012105349,0.011717529,0.1068212,0.14557311,0.024193093,-0.020205509,0.008001403,0.009993379,0.12575653,0.18725292,0.016696643,0.0032380768,0.016526872,0.009906391,0.13470793,0.25253838,0.024558272,0.0141974045,0.017814707,0.033994034,-0.008596181,-0.03713364,0.019876111,0.02404475,0.024476586,0.046049844,-0.008792805,-0.036164425,0.02434561,0.025681557,0.03439311,0.031287532,-0.0086907,-0.037167877,0.020264318,0.026639052,0.017475294,0.01919073,-0.008943406,-0.03271242,0.03560257,0.012491184,0.024223113,0.01824972,-0.008819584,-0.03649841,0.023102745,0.002867805,0.0067984215,0.023175659,-0.0088783875,-0.037974987,0.024603235,-0.007004857,-0.017318765,0.023838598,-0.008997206,-0.035841703,0.04100745,-0.008698434,-0.013308758,0.025691586,-0.0090638045,-0.035335585,0.03340587,0.0030438541,-0.01216659,0.014988874,-0.00900202,-0.03705591,0.045491386,0.014004831,-0.026396368,0.0010092534,-0.008876621,-0.03300375,0.046011604,0.0016787574,-0.042485487,-0.008050131,-0.008794662,-0.03780783,0.044733472,-0.0008424488,-0.044548072,-0.017283395,-0.008802444,-0.034743994,0.037275564,-0.00012189294,-0.033635736,-0.008601591,-0.008893642,-0.03281811,0.038754247,-0.009887735,-0.024773298,-0.0076765483,-0.008866527,-0.03591874,0.044464637,-0.022247797,-0.0285916,-0.009125247,-0.008804792,-0.032907814,0.047201186,-0.020101983,-0.028639097,-0.023465378,-0.008877295,-0.03793913,0.05051372,-0.019215517,-0.017100843,-0.02624382,-0.008841372,-0.03549737,0.047627416,-0.008970877,-0.015211301,-0.030212458,-0.008761062,-0.03751174,0.043162946,-0.020153249,-0.017565142,-0.03763904,-0.008956551,-0.032750037,0.05238929,-0.016240243,-0.00039712107,-0.041825537,-0.008711258,-0.036173802,0.049910463,-0.0228638,0.021727715,-0.05340584,-0.008794883,-0.036396176,0.05202673,-0.015128429,0.009314123,-0.05265851,-0.008760083,-0.03727359,0.045666926,-0.044690248,0.028858362,-0.042225182,-0.008959421,-0.03614284,0.050828163,-0.04483548,0.02451048,-0.019587295,-0.008993545,-0.035243817,0.056903977,-0.039497763,0.018618476,-0.020438487,-0.008807253,-0.03792172,0.0476942,-0.023656953,0.026745347,-0.00075117947,-0.008849811,-0.03310933,0.054003276,-0.03194854,0.044174872,-0.0049376613,-0.008754005,-0.034793343,0.048453376,-0.029724773,0.045632467,0.007230425,-0.008854662,-0.033799633,0.050599888,-0.033230077,0.0472754,0.0018668679,-0.008738409,-0.034696467,0.042084616,-0.04443311,0.04735206,0.016974267,-0.008733932,-0.03214686,0.04309773,-0.04176012,0.06232931,0.024051499,-0.008629572,-0.033782896,0.036067117,-0.029186577,0.04776096,0.03475639,-0.008749012,-0.03392528,0.0402505,-0.030050704,0.052885365,0.03549337,-0.008900661,-0.036365096,0.04468484,-0.022742452,0.052617732,0.04174306,-0.008776359,-0.032884054,0.038063735,-0.034613125,0.058379594,0.035062667,-0.008731183,-0.03266766,0.02949928,-0.024154719,0.06455547,0.046506103,-0.008666772,-0.032395516,0.022128195,-0.03795022,0.06429724,0.026635293,-0.008757517,-0.033653077,0.028740052,0.023284981,0.06412752,0.016507499,-0.008785179,-0.03391783,0.035793275,0.00860916,0.0706705,0.0133921085,-0.008675507,-0.03646483,0.030166084,0.0041934308,0.054450706,0.0009946763,-0.008807681,-0.0376337,0.03398774,-0.009117997,0.061420407,0.0060892515,-0.008779632,-0.032830015,0.03312445,0.009433598,0.04850907,0.0006555875,-0.008717005,-0.035853095,0.016381538,0.023949312,0.032612793,-0.0071050352,-0.008643328,-0.03254931,0.03176933,0.0035570296,0.04724163,-0.015351426,-0.008689235,-0.034178715,0.016281314,0.00741244,0.046450507,-0.01593269,-0.008834318,-0.037074428,0.019840442,0.0122120315,0.036967844,-0.014934926,-0.008997112,-0.037907813,0.030016288,0.01720224,0.052142505,-0.0034482228,-0.009043348,-0.034079358,0.0314747,0.021582557,0.065744616,-0.008450602,-0.008580404,-0.032714482,0.031949796,0.009821379,0.04913315,0.0060868086,-0.008691744,-0.03295196,0.027930366,-0.0076823262,0.042744923,0.021718632,-0.008889199,-0.035097655
-0.07121105,-0.026131792,0.015091566,0.0022943742,-0.019771384,-0.008520512,-0.0118581075,0.0033991714,0.0032619974,0.008889522,-0.012651106,0.000519994,-0.026305204,-0.013634425,0.010304064,-0.0054267067,0.006120203,-0.016778808,-0.0076604094,0.023672322,-0.0013837506,0.009322213,0.027635291,-0.021360401,-0.030742228,-0.02006107,-0.0062795538,0.016223487,0.01326592,-0.031882882,-0.047484435,0.014440066,0.018745009,0.021851834,0.035308987,-0.0042848005,-0.008028787,-0.006036514,-0.0070555075,0.03085826,0.055675626,-0.027052796,-0.0023061107,0.01815116,0.031972423,0.0027265414,0.02676129,-0.03407926,-0.049129967,0.0059139165,0.0035322718,0.02942747,0.031011041,-0.02043623,-0.021250453,0.014560684,0.035114635,-0.0037148625,0.021835284,-0.020748463,-0.043668933,0.0030819408,0.009962369,0.018430129,0.033238657,-0.024181562,-0.046412155,0.02146975,-0.011058375,-0.0014675136,0.010330583,0.0011227519,-0.0013091584,0.002695626,-0.013401948,0.00813191,0.059473444,0.00645033,-0.001443883,0.013177876,0.018675243,0.028962407,0.016651489,-0.03325701,0.00041018042,0.0033650827,-0.023424396,0.037188414,0.053231556,-0.017436212,-0.02192242,0.00084979413,-0.003416857,0.03003537,0.007823001,-0.02949632,-0.043079752,0.014592038,-0.006661188,0.03581501,0.016905813,0.011008774,-0.015897835,-0.012210289,0.0045359237,0.027874423,0.05329366,0.011762294,-0.040809717,-0.004364424,-0.020574108,-0.0044870647,0.052488487,-0.009572623,-0.00024206736,0.006024419,0.01011773,0.017745035,-0.0012037342,-0.018952282,0.00483088,-0.018434146,0.0017458381,0.02077489,0.019531718,-0.00068740227,-0.042223632,-0.004482658,-0.00021268973,0.0084996605,-0.0028128223,-0.0032695727,-0.020636361,0.0009028511,0.008489263,0.031392954,0.020016864,0.005590222,-0.0037731838,-0.025821675,-0.017084528,-0.0018074927,0.0011710862,-0.007175502,-0.009759455,-0.0010971135,-0.01652087,0.011652328,0.011788895,0.0046180235,-0.0029660172,-0.008930583,-0.004903789,-0.0057773674,0.0001736327,-0.028120376,0.00021533578,-0.015415377,0.016644932,-0.00809826,-0.010041821,-0.02752194,-0.040388964,-0.013345547,0.0075303065,0.02641289,0.015215035,-0.013315397,0.02050927,-0.0022622107,-0.0092573045,-0.009146403,-0.015419635,-0.0038721352,-0.013239443,-0.009192405,-0.008330149,-0.0064248084,-0.017473944,0.0043443902,-0.021066936,0.0043478664,-0.010394467,0.0011884216,-0.0004451945,-0.014316585,-0.008368592,-0.0032419977,0.00093952136,0.010471832,-0.018394193,-0.025072347,-0.024810117,0.009992966,0.01657434,0.030680211,-0.00687511,0.0017670997,-0.019666227,0.010980787,-0.00951961,-0.008040277,0.02843661,0.026594931,0.027271977,0.011348486,0.010114762,-0.0023720802,-0.0025630337,0.0010346704,0.008737106,0.013087902,0.009061974,-0.0033789803,0.0054839225,0.003782601,-0.019555721,0.0071910326,0.001284126,0.025623357,0.014944072,0.0008083927,0.0014001266,-0.0012269827,-0.0012276348,0.018748732,0.0018051504,0.01941742,0.011733996,-0.003540503,-0.02736718,-0.0076950737,-0.0089976145,0.017620247,-0.018017644,-0.004200182,0.03198258,0.028635183,0.02634361,0.024601704,0.012067932,0.007067422,0.0016627985,0.021951033,0.028460186,-0.004296477,0.016086994,0.009687479,-0.019708974,0.017766612,0.031815495,0.0023396963,0.0052162902,0.0084007615,0.0060580913,0.024930805,0.0023380069,0.00848669,-0.017356865,-0.0061335713,0.015840748,-0.0040641082,0.0059961877,0.022436861,0.009665558,0.02540873,0.0076854024,-0.0006565675,0.033669736,0.015728036,-0.013900174,-0.008101837,0.020933907,-0.0016813738,0.05384907,0.016864806,0.010791125,0.005125777,-0.034384564,-0.0002192556,0.008252625,0.019085446,0.014248625,-0.02149911,-0.011822752,0.029969135,0.04124967,0.041842468,-0.009151561,-0.031179909,0.007306417,0.017370757,0.032767195,0.04991576,0.008805008,-0.061000027,-0.02296354,0.025506897,-0.04941925,0.028129393,0.0038787655,-0.015801799,-0.035253327,0.06781038,0.017840482,-0.011737132,-0.0018073743,-0.005354728,-0.030309187,0.0013017717,0.014525434,-0.0040899916,-0.030029718,0.016816113,-0.02836267,0.00023939529,0.006822326,0.02106087,-0.0003023699,0.028562743,-0.043436803,0.008262911,0.012079192,0.033976316,-0.012216263,-0.0005535086,-0.033697184,-0.008076106,0.00045192108,0.0011371512,-0.0026540237,-0.0070369737,-0.035058532,-0.003948753,0.008041768,0.019978417,0.006122647,-0.011457934,0.020276282,-0.0607465,0.010270193,-0.0009167249,0.014892156,0.014297221,0.014292628,-0.02236844,0.009480966,-0.013270365,-0.0052064257,0.022277238,0.03045508,-0.03697311,0.012036555,0.017987153,0.019667126,0.030950818,0.040101755,-0.03741661,0.00036854285,0.024589458,0.032720707,0.041959282,0.0030444856,-0.01149889,0.012867595,0.009998097,0.03011301,0.035839725,0.043958288,-0.024896532,0.012481755,-0.008260133,0.025283897,0.03146941,0.025518583,-0.0017991218,0.0010031689,0.0061458554,0.030232262,-0.0031825202,0.02494628,0.027684268,0.017533695,0.014106458,0.0074847676,-0.051672556,-0.018308382,0.021397764,0.00033595855,0.029800277,0.030226063,-0.04636312,-0.005096696,-0.02048889,0.0014694295,-0.0014963187,0.02628231,-0.012858077,-0.045173693,-0.037684243,0.0014022631,0.022866452,-0.0051439637,0.013343672,-0.011726682,0.0006431665,-0.0047258046,-0.006414964,0.016616773,-0.0048063407,-0.046844516,0.0013738994,0.016103594,0.031963293,0.003601919,-0.0021918104,-0.033393666,0.023452515,-0.002119089,0.022958813,0.008226361,-0.045307755,-0.05316602,0.028094359,0.009099539,0.016377805,-0.040743038,-0.009445315,-0.053789914,0.010788995,0.005576381,0.036065236,-0.021831488,0.08099204,0.040492665,0.007754244,0.0108990725,0.0026818838,-0.024908647,0.019063367,0.09679702,-0.05192115,-0.0020068667,0.019507809,0.010672212,0.03576315,0.027826175,-0.06309612,-0.0022339185,0.017533842,0.045215826,0.00568503,0.053971976,-0.086106926,-0.003284932,0.0057651456,0.03694413,0.018540477,0.01630932,-0.07114993,-0.0015320384,0.0035650735,0.0140328,-0.020248894,0.019391919,-0.025832817,0.008667572,0.036928978,0.032260776,-0.010618862,-0.015321329,-0.027653348,0.014040235,-0.0134035,0.0015799814,-0.020803735,-0.00038304023,-0.04298083,0.0037394222,0.015356879,0.052944124,-0.0061697685,0.011655725,-0.023542156,0.016687222,0.018613886,0.048892256,0.010710658,0.015373738,0.002711763,-0.003549655,0.027267149,0.03595239,-0.004219945,0.002012761,-0.01822032,-0.0013621969,0.021225741,0.02160256,-0.003605039,0.06209057,0.0112090595,0.007945167,0.020667175,0.053499646,0.0055176797,0.019267838,0.017160853,0.017104404,-0.006769023,0.06277585,-0.0014080078,0.013508359,-0.019212626,0.002515722,0.025694994,0.03138517,-0.042835355,-0.0092239855,-0.05161141,0.0019099836,0.014758966,0.058332946,0.047796562,-0.01041892,-0.031254288,0.011163545,0.026445562,0.029892934,0.012276993,0.01902692,-0.08288453,0.00408216,0.03109307,0.08467562,0.0447355,0.024703188,-0.06781132,0.007939753,-0.0028929827,0.05470733,0.03026542,0.017364835,-0.09379057,0.0155078415,0.03609523,0.07809885,0.040040806,0.015949756,-0.026846422,-0.0017284878,0.012120238,0.026688961,0.0047919773,0.0021209626,-0.058442984,0.018503532,0.0334013,0.053394772,0.023751145,-0.007901658,-0.10435047,0.016934657,0.009671985,0.061151106,0.0074618305,-0.0075713764,-0.11438986,0.0010658485,-0.0073327105,0.038266994,0.013573332,-0.015265828,-0.11324467,0.010402184,-0.013914445,0.041196857,0.021577861,-0.021478629,-0.12425622,0.012758676,-0.007364132,0.07674482,-0.012955829,0.04527087,-0.085513376,0.006570956,0.020595951,0.014361657,-0.009126237,0.0665819,-0.0864732,0.009402444,-0.0075723953,0.02974189,-0.021031557,0.014105153,-0.032414064,-0.0019047798,-0.00063133764
0.017149024,-0.02159477,0.052529216,0.030611174,-0.06277754,0.03381427,0.01566904,-0.018528199,0.05075405,0.028373761,-0.048695944,0.026400631,0.016006552,-0.028722635,0.03716079,0.029256538,-0.046152856,0.0386353,0.023057565,-0.028173482,0.052932553,0.02564486,-0.056205086,0.046544705,0.016613357,-0.037668657,0.048447758,0.03082473,-0.0516756,0.047177453,0.015960071,-0.029710088,0.03135884,0.031087464,-0.05039894,0.05891372,0.019606356,-0.024223916,0.03186199,0.025746306,-0.046672437,0.050308578,0.014390842,-0.01602694,0.033256024,0.026761947,-0.051708337,0.04385424,0.010480266,-0.030090285,0.012831934,0.027268413,-0.046559416,0.046639487,0.015013314,-0.018466718,-0.0007618123,0.028128466,-0.030714758,0.04882235,0.01779659,-0.012540801,0.0014781489,0.026253372,-0.04054693,0.056289982,0.015493374,-0.01520624,0.008657017,0.024990153,-0.034630235,0.05273478,0.008764624,-0.014698882,-0.00021944554,0.026649352,-0.053419974,0.05891397,0.0136162285,-0.012611264,-0.008710999,0.025614686,-0.04024478,0.04451671,0.01519763,-0.019779773,-0.0054240185,0.02863396,-0.05319856,0.05472015,0.011666326,-0.019870931,-0.020472785,0.025787476,-0.053229816,0.04592543,0.0035749692,-0.018291697,-0.017181383,0.027011877,-0.04700806,0.048144974,0.0072029424,-0.0061345883,-0.008939729,0.028655665,-0.046022408,0.049052045,0.005526551,-0.008561812,-0.018018628,0.023284944,-0.05394104,0.05754243,0.0056486405,-0.010215702,-0.02073046,0.023888506,-0.038220026,0.043148864,0.0017756084,0.018914193,-0.029638005,0.025901707,-0.056841936,0.057049733,0.0018633817,0.024163924,-0.026087455,0.024839887,-0.06318855,0.052772466,-0.0047282064,0.009722541,-0.014085926,0.026155783,-0.05563509,0.04462679,0.0064109224,-0.0003217704,-0.017579826,0.024719356,-0.047394186,0.03138174,0.00792926,0.031062646,-0.021913208,0.025050843,-0.064023525,0.04278009,0.006473916,0.03792124,-0.030742677,0.02342905,-0.0644254,0.035355594,0.007884734,0.02699567,-0.018916726,0.025078578,-0.06267179,0.025911141,0.011276385,0.03591215,-0.029167343,0.024908595,-0.050114874,0.016695198,0.013347846,0.014242886,-0.024120035,0.02763573,-0.057080496,0.014751557,0.01474079,0.028440272,-0.020424264,0.02471003,-0.07008112,0.0116722165,0.00906347,0.036482718,-0.026025254,0.024244467,-0.05425384,-0.0003265051,0.014091997,0.043212082,-0.02052244,0.025806693,-0.065299526,3.6721078e-05,0.014134314,0.024891077,-0.00037679664,0.024062397,-0.0668299,-0.0018478852,0.0076310914,0.03826068,0.00072287116,0.0278717,-0.060291592,0.007945192,0.011871705,0.03972115,-0.0068288925,0.025165478,-0.057610597,-0.0010611999,0.011682596,0.029125374,-0.003912139,0.023651028,-0.065192215,-0.009906695,0.015276038,0.034651782,8.602862e-05,0.024269782,-0.063178845,0.0031190675,0.009192501,0.0659625,-0.034472533,0.026946304,-0.056856945,0.010656166,0.009768446,0.060739078,-0.03780962,0.02265398,-0.06492223,0.0069429884,0.010743973,0.052301824,-0.020864636,0.025479222,-0.054785315,0.007085691,0.016654858,0.04908481,-0.027929245,0.024062337,-0.060286164,0.013518037,0.016552534,0.052994177,-0.022186095,0.025856923,-0.05687658,0.014163277,0.01579447,0.044103473,-0.035831638,0.024290796,-0.062910736,0.026421059,0.020149767,0.055467688,-0.00869574,0.025568305,-0.06882259,0.01830931,0.025983406,0.058484565,-0.015110173,0.02582606,-0.05112456,0.0068636304,0.025048418,0.0628887,-0.018398868,0.027288182,-0.05565586,0.012873095,0.0236383,0.043293513,-0.011492392,0.026628781,-0.022729049,0.028997067,0.014364084,0.031323463,-0.01403562,0.026638914,-0.010412377,0.030776286,0.023609439,0.03436047,-0.013328401,0.027260479,-0.0113193905,0.045826264,0.012803053,0.027327402,-0.018702947,0.02782923,-0.01333516,0.011689391,0.016453492,0.028858095,-0.017260665,-0.04883969,-0.0028679294,-0.0060871826,0.016608268,0.018394673,-0.01166485,-0.044330336,-0.0030729123,-0.0034634317,0.024020977,0.023331491,0.0079408735,-0.046496414,-0.0029580684,-0.010190929,0.019303787,0.0066615096,-0.0009836002,-0.026614746,-0.0030572,-0.0055562817,0.021113839,-0.001433442,-0.0017345062,-0.024505962,-0.0030709992,-0.0032736713,0.020668985,-0.013584863,-0.01958344,-0.0030059612,-0.0030715272,-0.008203571,0.02311774,-0.011353239,-0.02998767,-0.0013834077,-0.003131725,-0.006987052,0.019131985,-0.02282564,-0.040431935,0.020582344,-0.00320079,-0.0082271565,0.01542774,-0.01826564,-0.03698669,0.013686631,-0.0030697829,-0.010614173,0.010091355,-0.010891242,-0.027284237,0.017171698,-0.0031000522,-0.005182937,0.007870224,-0.013749379,-0.047226187,0.014557804,-0.0030963519,-0.0033226076,0.009496684,-0.021694254,-0.04472114,0.014273499,-0.0031621363,-0.011697333,0.0037518188,-0.0071696024,-0.037371404,0.0022671518,-0.00318354,-0.008382393,-0.0035956206,-0.018546414,-0.033451382,0.020636294,-0.0032285335,-0.007977303,-0.010127407,-0.025238907,-0.036032572,0.0067116898,-0.0030679991,-0.0060256147,-0.015000119,-0.00988697,-0.04906144,0.015610091,-0.003140657,-0.0077650547,-0.015353341,-0.0013911169,-0.038069464,0.014256418,-0.0032264176,-0.010778176,-0.01275243,-0.0041590454,-0.03993871,0.02724759,-0.003140759,-0.009089158,-0.024082256,0.0036358705,-0.047985412,0.021793703,-0.0031717743,-0.005349099,-0.028841753,-0.010867624,-0.0367895,0.025350848,-0.0028969133,-0.0096159745,-0.030433044,-0.009494473,-0.036106158,0.010271073,-0.0031695615,-0.0040064594,-0.0264548,-0.00069894217,-0.05588712,0.026928235,-0.0030267872,-0.011154099,-0.032814596,0.035971973,-0.052194137,0.0041315528,-0.0029783084,-0.0060799625,-0.030728277,0.018252356,-0.048118517,0.014182249,-0.0030042676,-0.011349661,-0.03488237,0.025507797,-0.06315771,0.0065788315,-0.003204545,-0.00768423,-0.03372909,0.023967968,-0.03649357,0.016476028,-0.0031697773,-0.004715409,-0.036910687,0.03764249,-0.049349267,0.0059065083,-0.0030272647,-0.007570836,-0.03699468,0.037604682,-0.03595423,0.019928057,-0.0031832126,-0.011094658,-0.035051197,0.042314604,-0.032149363,0.024137931,-0.0031155446,-0.010148774,-0.03271512,0.032984957,-0.0408667,0.025325447,-0.0031777408,-0.009338227,-0.030054243,0.03448335,-0.015420183,0.021147829,-0.0030987288,-0.011954982,-0.037543666,0.042104755,-0.0072136507,0.004133892,-0.003039561,-0.008743543,-0.03364954,0.042838152,-0.007924031,0.022321314,-0.003106616,-0.0042313,-0.03046247,0.051166557,-0.0027917237,0.007185076,-0.0030239588,-0.003621897,-0.029340576,0.033412132,-0.0069431276,0.014007836,-0.0031708614,-0.010742521,-0.025357386,0.029888513,0.015847923,0.039991386,-0.0030773464,-0.006209823,-0.025374055,0.00040005948,0.007981098,0.025531903,-0.0029374121,-0.0044556404,-0.031731687,0.034507066,0.038397692,0.02535364,-0.0032031697,-0.0049254135,-0.031977978,0.0026264014,0.031120054,0.038738176,-0.0029838164,-0.008931972,-0.027907293,0.00028801584,0.013033186,0.045899484,-0.0030846188,-0.007996379,-0.02991783,-0.017324463,0.024065515,0.04900648,-0.0031025556,-0.003080482,-0.02728398,-1.7528608e-05,0.028586674,0.048325974,-0.0031251817,-0.009222201,-0.03752864,0.0077159796,0.015998399,0.048156653,-0.0029291154,-0.0030251096,-0.035698008,-0.010771059,0.020496305,0.04595468,-0.0030512807,-0.0061300914,-0.03384012,-0.0024097902,0.04544496,0.04567681,-0.0031690968,-0.011293759,-0.02958781,-0.0060317134,0.036870547,0.06218486,-0.003140465,-0.006973486,-0.032530393,-0.01067577,0.030794088,0.07295144,-0.0032510278,-0.009598648,-0.034876652,-0.0059496798,0.032975014,0.08739248,-0.0030091766,-0.006164505,-0.033317894,-0.0013595838,0.02419716,0.08536957,-0.0031566666,-0.0035787495,-0.037637036,-0.00958649,-0.022477709,0.08840445,-0.003012248,-0.009856312
0.016843084,-0.026375683,-0.006517071,-0.00197177,0.0073368116,0.022783414,0.021007352,-0.032104336,-0.011547677,-0.0015125205,0.03519357,-0.023426045,0.011987473,-0.010737264,0.0018885186,-0.006183589,-0.01670552,-0.0025844546,-0.013286014,-0.04135916,-0.02701922,-0.0011567017,-0.012730898,0.031216599,-0.012545835,-0.010890495,8.909861e-05,0.012851337,0.0024827286,-0.021031048,0.027194126,-0.035040382,0.0018082057,-0.018712308,0.034148112,-0.010464952,-0.026589725,-0.02738138,0.00046352373,-0.004921938,0.0072453725,-0.011104557,0.03579336,-0.011964619,-0.019029118,-0.02056046,0.01008079,0.02904013,0.020781567,-0.02624772,-0.010784074,0.037246045,0.00053059426,0.03518013,-0.02524724,-0.0053859744,-0.028222887,0.0177323,0.0006475961,-0.0075318855,0.0051318617,-0.009498189,-0.005557253,0.037537996,-0.009771326,-0.0040402603,0.028928,-0.011523976,-0.013190532,-0.0062367753,0.06156584,0.029940959,-0.008542382,-0.0070573282,0.0077446704,-0.0021817114,0.050412744,0.036408007,-0.0153465355,-0.026267847,0.011589428,-0.017522195,0.022564456,-0.027405184,-0.020970738,0.004961885,-0.035466947,-0.012660446,0.016516745,-0.0037070147,-0.023364741,0.0021815614,-0.00034427107,0.020910457,0.0059744883,0.014444199,0.019253457,-0.020290107,-0.009724209,0.028195793,0.006824014,-0.0007651887,-0.03717045,-0.012954685,-0.012402672,-0.010699616,0.004002285,-0.0034358492,-0.011920311,-0.026972305,-0.029912213,-0.0011882224,0.014698364,0.004304365,-0.005763148,-0.0025939816,-0.020333283,0.033376906,-0.008627993,0.027949557,-0.015336165,-0.0062907212,-0.050034918,0.0062975013,0.022536138,0.030072551,-0.0073334514,-0.022455433,0.010762224,-0.01511252,-0.0015589811,0.008951125,0.009342378,-0.022245092,-0.016090866,0.03350998,0.052358586,-0.016396083,0.00328383,0.0137709025,-0.0038456821,0.019851217,-0.020581495,0.02436051,-0.031734094,-0.01557266,-0.031156104,-0.027131725,0.022066494,0.009830566,0.021598153,-0.029515076,-0.020851836,-0.025735775,0.0021548357,0.014195408,-0.041495383,-0.012576179,0.01866598,0.011353903,0.02801579,-0.0046744742,-0.031109499,0.008488745,-0.0042277556,-0.014757905,0.045798603,-0.043683436,-0.0037808297,-0.018534198,0.010455857,0.037105467,0.0076059746,-0.02540333,-0.040620577,-0.013519956,-0.0041517406,0.0105834305,-0.0015492354,-0.024576781,0.007757659,-0.0015007079,0.016559303,-0.024248026,0.04219416,-0.02487518,-0.049275264,-0.013299606,-0.009789569,0.025553051,-0.012895969,-0.016748471,-0.042292885,0.004558381,-0.014965141,0.0013595145,-0.018153802,-0.034706708,-0.046211954,0.0050831474,-0.0062872223,0.032324545,-0.016723877,-0.029317267,0.012839861,0.015405336,-0.010432828,0.019443525,-0.010195545,0.012708751,-0.012077266,-0.02920497,-0.011291565,0.013603643,-0.009076762,-0.02251843,-0.049248945,0.02384516,-0.015627658,0.010923449,-0.023509584,-0.05349177,0.00012640134,0.00032954538,0.0039633233,-0.02265031,0.013828943,0.0136069935,-0.04062309,0.0011236987,0.00205746,-0.0030166658,0.04284708,-0.009830167,0.0024514853,0.01465306,-0.009145378,0.016574983,-0.006120015,-0.053097475,0.0017173531,-0.015275069,-0.029119844,0.020193418,-0.031397164,-0.017695228,0.015131855,0.026529139,-0.027733563,0.0009376271,0.010020574,-0.020563867,-0.015223231,-0.002788309,0.0032613215,-0.0043198937,-0.016897578,-0.032954402,0.021837045,0.013356813,-0.043503072,-0.0010872954,0.023432238,-0.04342568,0.017810758,-0.013922892,-0.038407695,0.003368153,0.019276336,-0.011000759,0.006382014,0.021102102,-0.019075854,0.03457449,-0.03881921,-0.025073912,0.0074522737,-0.009825059,-0.020451764,-0.0050984,-0.034113824,-0.032327026,-0.020233454,0.032938275,0.00074889447,-0.010793991,-0.021007173,-0.0684635,-0.040185615,0.016277881,0.0047242506,0.027285308,0.007803867,-0.10028124,-0.007972551,0.004503219,0.002875794,0.041837066,0.028768098,-0.027153896,0.025466358,-0.012279853,-0.021542216,-0.07844495,0.015709803,-0.009704193,-0.010320627,0.022990752,-0.0081287315,-0.0069338568,0.023899553,0.0032281578,-0.02281453,-0.00043515684,0.0056321723,-0.0015151856,0.01125896,0.01898972,-0.008399413,0.008970329,-0.014001509,0.022267293,0.029858893,-0.008456131,-0.0021850867,-0.013797376,-0.016532581,0.0073734797,0.01433414,-0.0037925267,0.0051121893,-0.042128243,-0.0007075931,0.022492802,0.014021137,0.03707872,-0.015063535,-0.024776477,-0.025512021,0.02614174,-0.004766945,-0.021911986,-0.021989979,-0.014234313,-0.025989702,-0.0020034849,-0.018520217,0.029165093,0.024144068,-0.028033786,-0.0071819993,0.020181768,0.027416177,0.00073884707,-0.013024867,-0.008002539,-0.0304087,0.050349265,0.012987975,-0.002221701,-0.010371234,0.0011192348,0.013000053,0.019524138,-0.017744964,0.04893038,0.023693116,-0.004240347,-0.0426623,-0.010724342,-0.010353449,0.001648066,-0.026054682,-0.015599013,0.014020763,0.024043677,0.036585897,0.031205948,-0.033041984,0.005977144,-0.0256424,0.027088577,0.000312809,0.04678243,-0.03848162,-0.01871852,-0.019448444,-0.026997678,0.04177018,-0.0019602557,0.017556425,-0.012681619,0.024344549,0.026834438,-0.011533283,-0.014739125,-0.019645048,0.00049721275,0.020432154,0.021543836,-0.01818671,0.021247212,0.019689973,0.0032798157,0.010132035,0.014298575,-0.01662563,0.021612952,0.01977459,-0.0024176955,0.021587698,0.026716769,-0.001374378,0.029766066,-0.04090501,-0.0033423714,0.017599981,-0.012075938,0.006474089,-0.0122390445,0.0077798814,0.0036193035,-0.004431437,-0.041641563,0.0063068843,0.027268074,-0.009815065,0.015849384,0.024275731,-0.009302429,0.0055226986,-0.02083796,-0.022916503,-0.00813215,0.010509484,0.014882728,0.0373046,0.0061957487,0.0076660058,-0.017721495,-0.0007666249,0.030493343,0.025406139,0.025719684,-0.029622104,-0.005540979,0.016853215,-0.015351476,-0.01578667,0.029155679,-0.015441757,-0.010904144,0.010284298,-0.02681841,0.03667367,0.016174847,-0.0012411845,-0.03274489,0.0071076765,-0.011370381,0.04171551,-0.0135260895,-0.023172244,0.0055165286,-0.013441923,-0.020952508,0.040764607,0.008513046,0.003956076,-0.0050643943,0.0032313422,-0.016235452,-0.013464087,-0.018146576,-0.026955495,-0.0103602335,0.012992272,-0.018379234,-0.0059233666,0.015066725,-0.015093099,0.0077090953,-0.0031599314,-0.039972607,0.03179909,-0.018728903,-0.0074339528,-0.011599208,0.01771342,-0.02357178,0.004519291,-0.007550073,0.0031164726,-0.01128424,0.015601508,-0.06692633,0.036813077,-0.0152251525,-0.041946962,-0.009823098,0.015355864,-0.055770155,-0.0041879434,0.016538376,-0.0018872293,-0.021693261,0.0066345865,-0.02171284,0.00078590354,0.019744156,-0.009861232,0.01516047,-0.0008515419,-0.017560529,0.0042268937,-0.011133388,-0.011629536,0.000579348,-0.016620612,0.0061964775,0.021101495,0.027627563,-0.008258572,-0.040666025,-0.017593034,0.016374571,0.035664838,0.014329379,0.012638105,-0.020347321,-0.020034771,0.031684488,-0.00036476718,-0.0007312464,-0.0032206855,-0.049321454,-0.01694049,-0.0072563183,-0.011099631,0.04700171,-0.047286555,-0.03456101,-0.020400252,0.015998093,0.013126238,0.042504102,-0.029941484,-0.015833467,-0.050169554,0.04110753,0.0041793813,0.03052954,-0.0487651,-0.02415809,-0.022478914,0.03406257,0.026176676,-0.01834607,-0.048078965,-0.032656636,-0.030106647,0.007628663,0.03928717,0.044317227,-0.01871665,-0.013979228,-0.02519327,0.008427494,0.019235717,0.008316942,-0.0383575,-0.029947925,-0.038210496,0.0067713954,0.011038143,0.0371681,-0.07323356,-0.021376587,-0.0063046413,0.0017523812,-0.015117033,0.03183866,-0.063814364,0.016128333,-0.0068195034,-0.0075391876,-0.014077138,-0.004713751,-0.028127795,-0.007069028,0.0059789005,-0.009480827,-0.011038859,0.048718844,-0.06437306,-0.029695043,-0.020911861,-0.00834676,0.021865496,0.017167127
-0.01751341,0.002802655,-0.017515847,0.0056508975,-0.00042302636,-0.0021932917,-0.0043469328,-0.009380894,-0.031643305,-0.011089363,-0.0329147,0.007605415,-0.010674868,-0.0065467744,-0.02727524,-0.00072889903,-0.013990627,0.011860036,-0.005646921,-0.01725554,-0.022651011,-0.01220715,-0.006941695,-0.011444628,-0.009269791,-0.0046960004,-0.013857017,-0.013533303,-0.008795088,0.022721142,-0.004490612,-0.014933849,-0.019845424,-0.011878309,0.015840068,0.024478564,-0.012009415,-0.022455005,-0.026859693,-0.0062837326,-0.010976304,0.012831891,-0.010225451,-0.01343489,-0.032625087,-0.015521061,-0.018683778,-0.007445596,-0.03301825,-0.019962767,-0.022728564,-0.0065171975,-0.024643896,-0.008896932,0.013703594,-0.014837868,-0.016247349,-0.006545197,0.009254213,0.015968284,-0.005527506,-0.029631812,-0.017652486,-0.0201593,0.021087052,0.015436726,-0.0025538476,-0.020042986,-0.036767203,0.0042708493,-0.01298009,-0.014654241,0.0066193813,-0.014660765,-0.0054956423,-0.007920286,0.0077050715,0.018010695,-0.021133596,-0.021499911,-0.025612097,0.0054824087,-0.021491244,0.0029824327,0.008244863,-0.024524879,-0.0011043196,-0.02410882,0.013134877,0.021348262,-0.017725276,-0.017670479,-0.019409558,-0.0075135496,-0.012944734,-0.013721374,-0.008119757,-0.023007007,-0.010710155,-0.0053517,0.018920738,0.0058286083,-0.0139142675,-0.02539817,-0.012851315,-0.0045218635,-0.021195449,0.019903246,0.012457372,-0.006557257,-0.01342774,0.002660815,0.011315928,-0.0058956994,-0.014605274,-0.018879639,-0.007508523,-0.011713732,-0.006296984,0.00054843974,-0.009818945,-0.012911483,-0.013739944,-0.0046433015,0.01600197,0.011148953,0.003694241,-0.0076492685,0.0010668748,0.002237025,0.003935597,-0.014001859,0.0006637011,-0.0015797229,-0.008167606,-0.022173574,-0.017717391,-0.00024498824,-0.013611306,-0.0085144015,-0.0021795575,-0.011704016,0.0021959639,0.00042032957,-0.02014111,-0.008296662,-0.0017539745,-0.013796058,0.0041906717,-0.008104405,0.01917567,0.011769591,0.008209319,0.008048318,-0.020181833,0.0026371484,-0.00050794886,0.0061138095,-0.0022777924,-0.017201604,0.014818949,0.014212886,-0.02022313,-0.0054245056,0.0028161928,-0.019764831,-0.0052070287,0.004999871,0.007920861,0.00051165506,-0.009245688,-0.000110158806,0.012380776,0.0035460382,0.0012608249,-0.003331745,0.0036833794,-0.018137796,-0.017294642,0.0032308728,-0.016381485,0.00962084,0.009734251,-0.0076844143,0.026363052,0.015126854,-0.024507098,-0.007190752,-0.005097558,-0.0024606658,-0.018335104,-0.010273329,0.0021248905,-0.00038097927,-0.002849322,-0.022141803,0.011239309,0.003694209,-0.010742546,-4.9945684e-06,-0.0060899034,-0.008252726,0.00080072944,0.016913963,-0.012922605,-0.017056758,-0.006553786,-0.019609123,-0.009889841,0.012217439,0.00465042,-0.008129252,-0.0061875503,-0.013127357,-0.0012711205,0.01233117,0.0023007158,-0.006698764,0.008839041,-0.016411837,-0.013114837,0.026804471,-0.024773775,-0.0016516374,0.0015036417,-0.0031689992,-0.009287636,-0.0017644104,-0.013876576,-0.013733307,0.0060725934,-0.017775167,0.02140127,0.01357975,0.0017819477,-0.001243151,0.027398366,-0.0025557335,-0.00579466,0.009325819,-0.029384013,-0.0027279265,-0.010609019,-0.019264396,0.008313901,0.022602044,0.0026152898,-0.0011271947,0.01244025,-0.028940301,-0.027040591,0.01136848,-0.019929027,-0.010218571,-0.005807388,-0.020760585,4.932356e-05,-0.015715253,-0.011272521,-0.010529637,0.0034348983,-0.020275308,0.013767012,0.01606967,0.011119098,0.006605135,-0.0051675425,-0.031259097,0.0029933073,0.022084307,0.015058155,0.0009717309,0.013935129,-0.03248451,-0.03907801,0.013780417,0.0026992655,-0.0040613795,0.0040260977,-0.025294984,-0.035024896,-0.01634521,0.010114996,0.017680654,-0.0020877137,-0.028693076,0.0050894,0.0028845437,0.018952347,-0.017612195,0.0131977415,-0.036769226,0.007184414,0.006603462,0.028113399,-0.0010972237,0.0027886666,-0.026847135,0.005743885,0.04587856,-0.00014620599,-0.017518904,-0.01227057,-0.07404967,0.0021775549,0.0068738475,-0.005523774,-0.0026235112,-0.012149222,-7.780928e-05,0.01205895,0.0076982686,0.01909048,-0.017618854,-0.017057208,-0.02505474,0.006435976,0.0060373177,0.0008102128,-0.010473727,-0.013230929,0.0294086,0.0143853,0.016655754,0.013072862,0.005447295,-0.0019225336,0.0063828696,0.015850615,0.0266356,0.011808125,0.00032695412,0.007945347,-0.0024584655,0.0004940867,-0.0003523883,0.018161956,0.004407345,-0.020733448,-0.0129681295,0.0054261386,0.009244284,0.0126309,-0.016520396,0.0016165489,0.023470374,0.0050311605,0.011564606,0.011769021,-0.011213187,-0.0043202154,-0.008045047,0.003694184,0.015876515,0.028920136,0.0008897673,-0.00072592875,0.00073498656,0.010720259,0.024291323,0.016811473,0.004928423,-0.015118774,-0.038043607,-4.9555147e-05,0.0012392829,0.0026190465,0.00842928,-0.014466818,0.016256174,0.011767857,0.014605479,0.013416825,0.008235272,-0.008303404,0.027756765,0.000388542,0.01101463,-0.000710048,0.018978292,0.012824657,-0.012192428,0.017930567,0.032062147,0.022791699,0.0058447043,-0.0037134818,0.0136633115,-0.00018937173,0.029948933,0.02409835,0.014797623,0.0028321096,0.03469384,0.017671676,-0.008557,0.03418047,-0.004107906,-0.009616205,-0.006749383,0.0022487473,0.003907759,0.019054351,0.0024713336,-0.012022933,0.0233651,-0.0026649085,0.028851138,0.004790249,-0.010935917,-0.006259936,0.018262642,0.0030792176,-0.01059191,0.023438927,-0.020387132,-0.0022818013,0.012051362,0.012356004,0.0243965,0.026057355,-0.026047105,-0.0051456257,-0.0038742053,0.0033899636,0.027515417,0.009603145,-0.010715561,-0.010830601,0.03295771,0.008216523,0.028281577,0.0223757,-0.007598507,-0.010197042,0.019558424,0.0014960933,0.021223843,0.049447916,0.014129141,-0.00800685,-0.019812323,0.0011036837,0.0072956644,-0.0020362367,-0.014331874,-0.002944654,-0.0009913021,-0.0012339831,-0.0019929195,-0.0048796693,0.0076754526,-0.011064832,-0.014301974,0.0028371394,0.012579495,0.021170976,-0.0032383674,-0.011262209,-0.0013198901,0.008709193,0.025808573,0.014219737,-0.007946506,-0.0018552645,-0.030477561,0.016666584,0.022088604,0.0044960123,0.01299246,-0.028606305,-0.0047193123,-0.0012340365,0.020943725,0.036532115,-0.01000506,0.0048094224,-0.029902464,0.016942484,-0.0020862573,0.009870015,0.0021063685,-0.009411203,-0.011277396,0.00023795797,-0.010546419,0.011149711,-0.01996573,-0.023610398,-0.050194807,0.017980523,0.005421864,0.019823175,-0.01760605,-0.007676569,-0.00032589608,0.008388778,0.015887504,0.00907655,-0.02231255,-0.019183785,-0.007512293,0.0152869085,0.03707326,0.019790685,-0.010468589,-0.030020304,-0.033414956,0.011492404,0.026439793,-0.008396186,-0.023493782,-0.022237446,-0.027977228,0.014164111,0.03871333,0.02729201,-0.03539703,-0.016924487,0.014141823,0.016472071,-0.00448042,-0.0076337126,-0.026599271,-0.023836862,-0.016839214,0.006023353,0.004995438,0.010844337,-0.027735833,-0.02308248,0.026052795,0.015129511,0.04005866,-0.0047802,-0.024333272,-0.035730295,0.007942043,0.010188554,0.018550938,0.006544176,-0.0220496,-0.024586197,-0.016353253,-0.0021260034,0.03369961,0.030244064,-0.021880312,-0.02364616,0.004327589,0.0033558146,0.0041847746,-0.0063109505,-0.013192393,-0.020906722,0.016724374,0.014890903,0.017254554,-0.0030007176,-0.019443024,-0.011024482,-0.009430523,0.003225153,0.023772977,0.011472549,-0.019921977,-0.019384572,0.0015193541,-0.0024383669,0.007046574,-0.01101749,-0.024450429,-0.011755469,-0.01600475,-0.00014395453,-0.0021697723,-0.0038892792,-0.014451962,-0.021717358,0.04363049,0.015213517,-0.011000956,-0.008571526,-0.024395175,-0.009096169,0.03339492,0.013278469,0.029493192,-0.004441367,-0.028663881,-0.028045774,0.009601878,0.006183622,-0.011050532,-0.015589635,-0.025888287,-0.046183456,0.013807042,0.01754414,0.015927723
-0.031431347,0.02862674,0.029110895,0.0003102368,0.006248756,0.00037507067,0.008564488,0.03304754,0.058084924,0.015558038,-0.012759323,-0.012594264,0.0089809345,0.027165418,0.02085865,-0.0039864113,0.029343301,0.006722714,0.009054543,0.055466026,0.036204044,0.007058202,0.009749452,-0.00074396643,-0.011762752,0.026445355,0.05495765,-0.016728297,-0.015556649,-0.021092443,0.036986805,0.024887545,0.034962997,0.014500881,-0.0047409846,0.03812448,0.037533958,0.022548515,0.014545745,0.0039825602,-0.0016120183,0.033292424,0.020454232,0.028165882,0.0042208396,-0.012017091,-0.010085307,0.016522389,0.022553999,-0.0012416029,0.014385258,0.011292548,-0.032817636,-0.0146098,0.014273835,-0.007857737,-0.0147761395,-0.017384928,0.02421603,0.025062414,0.028867431,-0.008832688,-0.0032885345,-0.008374277,-0.03954542,-0.004804047,-0.011067052,-0.011906073,-0.009684682,-0.02907997,-0.040842626,0.035439122,0.0579338,-0.0045269793,-0.033742722,-0.01382759,-0.014454619,0.03423729,0.040752996,-0.014840531,-0.017415052,-0.032992512,0.00048819135,0.01596375,-0.004971753,-0.029726977,-0.03485977,0.002679065,-0.002700581,0.0022136422,0.049509753,-0.027599376,-0.017273456,0.008307243,-0.03049796,0.014558054,0.05079147,-0.00958719,-0.04952647,0.00062016875,-0.052371204,0.045174513,0.03352533,-0.034804612,-0.0074272132,-0.0037618086,0.018274639,-0.015050317,0.039396144,-0.07372676,-0.020061748,-0.012494991,0.002695137,-0.008463728,0.048223037,-0.08231574,-0.021843925,0.0052611143,-0.03125025,0.025440918,0.060150374,-0.02507292,-0.047044944,0.0013848367,-0.010075411,-0.0213809,0.05482264,-0.044380803,-0.020155221,-0.03215905,0.034276593,-0.011500047,0.06462858,-0.0274979,-0.067160785,-0.001658551,-0.012052841,-0.009184814,0.025009865,-0.0253323,-0.0037813126,0.0048510022,0.04014257,-0.00080236635,0.028479699,-0.0030227003,-0.036153644,0.00426927,0.031089948,0.011844472,0.06997792,-0.029098323,0.006449354,-0.017754145,-0.00019320086,-0.020926807,0.086303495,-0.0054771304,-0.015424675,-0.032308824,0.020274008,-0.010921157,0.031063283,-0.011329959,-0.033348035,0.0019432551,0.026731048,-0.0075416523,0.028797064,-0.005413629,-0.025693981,-0.0021942484,0.016946265,0.013798512,0.035786122,0.007517085,-0.030893506,-0.014907542,0.028142799,0.0036200855,0.086121954,0.0175797,0.024314577,-0.01744801,0.027949564,0.014229123,0.069568016,0.017855633,-0.017887935,0.017686697,0.06053554,-0.019976743,0.048967466,-0.006046615,0.009324394,0.011692498,0.022688773,0.004642009,0.081401415,0.022804039,0.003044881,-0.008722322,0.06545064,0.017420376,0.075759105,-0.0097334925,0.035705853,-0.01635178,0.07530669,-0.011311563,0.07541462,-0.023251759,0.031590335,0.018412514,0.08542903,0.0034733703,0.057007067,-0.0064557693,-0.016104974,-0.03236125,0.05550466,0.018288726,0.050103065,-0.0123792775,-0.0033683283,0.01431477,0.048297774,-0.015818626,0.034844298,-0.0025102783,-0.029630702,0.016939783,0.074463814,-0.026184393,0.07630397,0.025926705,-0.012602142,0.006822117,0.060726415,-0.00474404,0.055512905,0.00026928625,0.013262628,-0.0015783049,0.08952735,0.016010396,0.03882153,-0.028090563,0.00032172308,0.023058444,0.0657118,-0.0053902934,0.035784844,-0.00039055635,-0.008217076,0.0086931195,0.07703494,0.0058055962,0.01806524,0.009706646,-0.0233531,0.020250017,0.084881276,0.005309135,0.030882347,0.02012398,-0.013017309,0.016010053,0.036054745,0.007164633,0.007048244,-0.031583488,0.016631939,0.040275164,0.10872429,-0.015498295,0.048475023,-0.0006397003,-0.0139584225,0.047215328,0.064335555,0.0040382985,-0.0023864037,-0.027175415,-0.0059796656,0.032731432,0.074899435,-0.011312243,0.029379778,-0.019860335,-0.023743285,0.057201404,0.12996192,0.0026029728,0.02366597,0.008639384,-0.002281612,0.022934634,0.1508428,0.034511678,0.020431753,-0.0101537425,0.014845416,-0.1729351,-0.01007723,0.0077972556,0.0018779711,0.020300198,0.01661944,-0.074192196,0.0017844252,-0.04251437,0.021041272,-0.00045356757,0.006233657,-0.08715541,-0.016319137,-0.013245,0.04671106,-0.023356045,-0.0072745667,-0.07488773,-0.018128863,0.0037979204,0.040721282,-0.011416127,-0.010063247,-0.024414288,-0.013558183,0.013730865,0.0012107319,0.01876068,-0.014743071,-0.03449049,0.00553426,0.02239527,0.03178741,0.019405093,-0.014828697,-0.020911256,0.011061525,-0.015581485,-0.0056097186,-0.0066353683,0.018190913,-0.022928623,0.0060257874,-0.018581321,0.0015456091,0.015885437,0.006880955,-0.04379499,-0.012045994,-0.0035686519,0.03470981,0.023445265,0.00058164145,-0.06408694,-0.022571312,-0.014203286,-0.019735567,-0.000134094,-0.01642671,-0.024583912,-0.013021814,-0.019375933,-0.016972752,0.0008555116,-0.008512984,-0.05507268,-0.01795975,-0.008009463,0.02435184,-0.01241745,0.010347799,-0.025596939,0.0055315522,-0.016180463,-0.0022117493,0.0039557796,-0.001359177,-0.06134655,0.0063874316,0.008051151,0.013120285,-0.014689187,0.0041787555,-0.031949326,-0.006016582,-0.03168293,0.010665962,0.00019818147,0.0015180773,-0.038207456,0.0007394165,-0.013570799,-0.0109400805,0.0029782674,0.001084719,-0.06161893,-0.027405495,-0.02066136,0.0077879317,-7.233143e-05,-0.018822048,-0.022211093,-0.008179923,-0.020944692,0.0006818299,0.0125633925,-0.028064607,-0.0430007,-0.02338897,-0.0021838136,0.0024628479,-0.033032604,0.026021047,0.01738166,-0.009945963,-0.008386154,-0.018744472,-0.011695454,0.009577751,-0.03899689,0.00914699,-0.004320168,0.001423551,0.011914807,0.0037005548,-0.0045936317,-0.0069658183,-0.018333718,-0.022572596,-0.00042472137,0.01695204,-0.04101422,-0.015722971,0.003785947,-0.030132262,0.016830802,-0.0049760593,-0.05541512,-0.0014477096,0.0015915318,-0.05974405,0.0016407568,0.003494434,-0.046965078,-0.0014021306,0.017133547,-0.0073595974,0.0012003414,0.027200418,-0.041403264,0.004191507,-0.027069675,-0.04199455,0.018258562,0.01258214,-0.057227034,-0.011998247,-0.039402295,-0.070355274,-0.004463222,0.019202314,-0.0062975264,-0.00589665,0.009326169,-0.05076658,0.020517472,0.0020558266,-0.048860487,-0.00287856,-0.01332203,-0.058817044,0.006772785,0.027671326,-0.008398012,-0.0050380407,0.0020247682,-0.03101909,0.016906377,0.016632909,-0.037645448,-0.0023052408,0.014992762,-0.07867578,0.027320012,0.007973272,-0.04937834,0.0031323617,0.008007376,-0.065415,0.023028815,-0.0037976117,-0.025808584,-0.026581666,0.021826593,-0.055254266,0.025517117,0.0043305345,-0.08065771,-0.014807876,-0.02993771,-0.07592872,0.034765597,-0.004024335,-0.06328035,0.0146065755,-0.03046136,-0.09965859,0.03842565,-0.007926075,-0.059216384,-0.01182132,0.002219171,-0.04744866,0.077917755,0.015180213,-0.015509113,0.00808304,0.017480059,-0.09039573,0.018294528,0.0017928433,-0.041489918,-0.015059519,0.016069587,-0.08825662,-0.025605915,-0.010666131,-0.034948938,0.014671759,-0.016866945,-0.052516975,-0.039896205,0.009354092,-0.016739959,0.0132728135,-0.01924034,-0.063260995,-0.028214658,-0.0034274142,-0.020235134,-0.026041098,-0.008261037,-0.10586121,-0.02014177,0.00010631961,-0.050159514,0.0048660813,-0.039194364,-0.096598834,-0.03617547,-0.0045737587,0.0013372367,-0.01580021,-0.017968541,-0.07328094,-0.009059025,-0.013464557,-0.027927883,-0.015675891,-0.022417478,-0.122453146,-0.033345502,0.0017994539,-0.004172658,-0.014161141,0.016845394,-0.07733509,-0.041887097,-0.032260004,0.034886207,-0.01931701,-0.024529228,-0.097649224,-0.04692582,-0.012221266,0.001111606,0.00583118,-0.02076427,-0.15916486,-0.056771457,-0.056343783,0.018975003,-0.02703912,-0.026130121,-0.19843099,-0.09802523,-0.053017102,-0.04700682,-0.014790123,-0.0021223307,-0.17831491,-0.09855698,-0.16670448,-0.12192082,-0.005495219,0.011022031
0.009625906,-0.0037062692,0.026961327,0.029710168,-0.0048909583,-0.010219586,-0.049836345,-0.010479762,0.0025500925,0.02408699,0.0035702563,-0.028835854,-0.040155556,-0.014098681,0.02395006,0.016442958,-0.027367985,-0.012687719,-0.008815171,0.0040450604,-0.009970871,0.031634405,-0.025098413,0.005137206,0.007719977,-0.011228153,0.011346168,0.008316069,-0.015446746,-0.019993812,-0.039201252,0.0039226757,-0.016145412,0.016698768,0.036470458,-0.026226476,0.0025122175,-0.015634298,0.018495876,-0.0011202452,-0.016709203,-0.020743398,-0.036254294,0.00685154,-0.031144429,-0.0117036775,-0.019358542,-0.032518998,-0.029962264,-0.030228978,-0.011141732,-0.0029486904,0.0018925742,-0.00399929,-0.0018308719,-0.013289002,-0.010044186,0.001557706,-0.04161642,-0.025560407,-0.010348677,-0.04240119,-0.031193612,0.035272937,-0.001436079,-0.005251814,-0.028118724,-0.005057056,-0.05471859,-0.0095006,-0.02777598,0.0005168653,0.0056546154,-0.023203326,-0.01469178,0.0016632882,0.0016400787,0.025641352,-0.016096875,-0.031391293,-0.027109664,-0.010690864,0.03177752,0.0067547173,0.01166794,-0.01968151,-0.02035765,-0.0020532883,-0.014377509,0.003292278,-0.027888732,-0.015331292,-0.010700482,0.028460635,0.007254855,-0.009145147,-0.016771212,0.01339724,-0.014647633,-0.0047526257,0.014400135,-0.012369761,0.012299112,-0.023093829,-0.020067364,0.012634692,-0.022226846,0.020541115,-0.0055481596,0.008456073,-0.024934553,0.007239077,-0.018222932,0.0016068363,-0.042993963,-0.032348756,-0.003797632,-0.0048824125,0.028134996,-0.016090965,0.0015151137,0.017439289,-0.043126125,0.023963673,0.0037901192,-0.019816713,-0.022547437,-0.028266745,0.027009077,-0.007678079,-0.019796098,0.031532567,-0.0029030195,0.0013979862,-0.017876841,0.0064114314,-0.00719532,-0.009541758,0.00084756105,0.003329208,-0.028951518,-0.006606342,-0.033747293,0.0012385646,-0.020017838,-0.033698827,-0.04253638,0.0068569104,-0.040207606,-0.031161226,-0.0033051812,-0.020123404,-0.034540866,0.038503915,0.005396207,0.005017359,-0.009433607,0.0054071783,-0.026768863,0.020210037,0.023414591,0.018970387,-0.021821948,-0.01280158,-0.021563001,0.031558223,-0.010813935,0.007079364,0.012706546,-0.01881078,-0.01968632,0.020574111,-0.010739918,0.019281467,-0.026237544,-0.017667746,-0.014520502,0.03141281,0.017236643,-0.00013297118,-0.028523356,-0.028995318,-0.0013908655,0.0012049385,-0.008625511,-0.0028423266,-0.013387102,0.0015773063,-0.028438643,-0.01676925,0.014373064,0.004524793,0.023066808,0.009424101,0.0022884,0.030322073,-0.0036285303,0.014334967,0.015924517,-0.0034947621,0.0014544495,0.01084783,-0.0070780823,-0.009761788,-0.02433997,-0.0068168533,-0.008262659,-0.013153024,0.00024073075,0.008116404,0.019818375,-0.0039390866,0.008153184,0.018993342,0.009147463,0.017256364,-0.02018995,0.012833013,-0.0028628013,0.03652857,0.015041229,0.005130634,0.0023572156,-0.00492657,0.004694939,-0.0028682477,-0.046053447,-0.014538587,-0.01603375,-0.0106610805,0.008199853,0.0056466344,0.0040244884,0.011373847,0.027374437,-0.0029573205,-0.022276359,-0.0048961174,-0.00084621087,-0.02371642,0.019598015,0.016453395,0.006782045,0.011748594,-0.009549639,-0.025925629,0.023020824,0.0049229087,-0.007245937,0.019714074,-0.016417453,-0.02617409,0.025271863,-0.025525464,0.016583769,0.010680614,0.016470188,-0.049517736,0.035943717,0.025056237,0.0140124075,0.0100520905,0.031312186,-0.016036725,0.006701537,0.01108847,-0.009731608,0.023468424,-0.025531117,-0.012753436,-0.00059858034,0.01959722,0.014671241,0.033890307,-0.0129430555,-0.0038244105,-0.0036275021,0.013354952,0.03132549,-0.01812916,-0.028247919,-0.02354098,0.047812153,0.036344483,0.039394055,0.0066050584,0.016723488,-0.015010148,0.017435484,0.011507276,0.04060648,-0.022997163,0.0219555,0.014193549,0.045468546,0.04006859,0.057249103,-0.00033870264,0.05089426,0.054801665,0.046019744,0.025016418,0.025141442,-0.0662205,-0.005649626,0.027724132,-0.004254964,0.024675323,0.035747208,0.013772254,0.006380322,0.025565306,0.046295565,0.0035851283,-0.025713341,0.022834972,0.025418792,0.011006928,0.013318501,0.027843645,0.017646283,0.008727507,0.016227301,0.012573927,0.014903357,0.032022607,-4.513094e-05,-0.004758252,0.026361145,-0.020137396,0.044660248,0.015648535,0.028954193,0.01378882,0.025510775,-0.01589862,-0.013046118,0.019194001,0.021236308,0.022998596,-0.0031625782,-0.0075079445,-0.017928401,-0.025710935,0.032176618,0.014784319,0.0013640593,-0.018413935,-0.0113597,-0.003836452,0.03708095,-0.017340017,0.0065497058,0.023436327,0.013791358,0.008986723,0.021588068,0.018098617,-0.002356541,-0.020543778,0.03801427,-0.02850532,0.021196615,0.026249567,-0.003999226,-0.011106257,-0.0041716807,-0.0035702155,0.014747569,0.024366278,0.013178595,-0.0060748723,-0.0050294176,-0.0381039,-0.021409603,-0.02707922,0.016398624,0.020792026,0.015194222,0.019130582,-0.01206638,-0.03037178,-0.010283319,0.021294743,0.02920585,-0.0025001098,0.0008409363,-0.04722735,0.021304805,0.020227332,0.008898552,-0.0015765637,-0.02660238,-0.042871047,-0.010176478,0.029483987,-0.007075512,-0.01074262,-0.015736582,-0.028712237,-0.003683101,-0.0011232961,0.003976893,-0.020144101,-0.043775164,-0.018634789,0.0028101676,0.02862716,0.0007172776,0.007194598,-0.027177067,-0.0053890217,0.030000776,0.013381094,0.009064448,0.0013278623,-0.026172534,-0.07306939,0.0034104544,0.02845845,0.034056813,0.02163634,-0.0021924174,-0.016669575,0.026049636,0.024758412,0.020579712,0.055561297,0.028639972,-0.040324647,-0.010191986,-0.008528536,0.013729738,-0.045811623,-0.023099575,-9.451381e-06,0.0073338337,-0.0038959312,0.01851754,-0.020296479,-0.060601868,-0.035449978,0.0151005825,0.004031529,0.007235749,-0.039678723,-0.028416105,-0.008657583,0.007905281,0.03007881,0.0012079792,0.00084716175,-0.050054844,-0.01773489,0.008825222,-0.00042248936,0.02508565,-0.02676476,-0.03323919,0.042284474,0.0045660497,0.015843019,0.03939765,0.003186464,-0.013407894,0.038302403,0.019631233,0.043707572,0.033312887,-0.0096847555,-0.023549384,0.014270691,0.022446143,0.020243805,-0.006912455,-0.029746827,-0.0056791827,0.014363836,0.00855337,0.0346209,-0.017180843,-0.016255202,-0.020995615,0.023843054,-0.012508867,-0.00294648,0.03844706,-0.017740376,0.0027737776,0.031781867,0.023699388,-0.01186931,0.004667447,-0.032399006,-0.0055349134,-0.008958657,0.0059066773,0.008491847,-0.016159184,-0.021127025,-0.007115662,-0.021464916,0.012671829,0.042102143,-0.033872414,-0.016908359,0.012502973,0.019042334,0.004305441,0.020440668,-0.020160813,-0.034831878,0.0468625,0.01127205,-0.012936367,-0.021726465,0.00021877806,0.029619163,0.029889503,-0.05204238,0.009693576,0.026942203,0.02071481,0.069525816,0.057055946,-0.016343951,0.028819669,0.04295817,0.014082825,0.06296512,0.0562615,-0.01006142,-0.014482502,0.033543635,0.014876102,0.0033233026,0.00017571724,-0.04700657,0.022085898,-0.0154894125,0.004533819,0.014863564,-0.015975993,0.018808309,0.029768726,-0.004652036,0.031170232,0.007921582,0.015945071,9.860935e-05,0.015587102,0.028012864,0.010930863,0.030423582,0.015179605,0.002390791,-0.009051351,0.022811374,0.003799031,0.018916098,-0.004035029,0.015962426,-0.0021207798,0.03337157,0.039657123,-0.0051285527,0.038061023,0.036060378,0.012713308,0.04187348,-0.016343229,0.013842292,-0.0048406175,-0.027937127,-0.002855961,0.01784335,0.0045193424,-0.007118011,-0.016205313,0.009305403,0.0115520395,0.038460135,0.007843469,-0.00060911215,-0.038187094,-0.019265478,0.02169245,-0.021601116,-0.019252824,-0.018641949,0.025194611,-0.036214806,0.00039163695,0.03917813,0.02092434,0.013577936,-0.0016186631,-0.047467574,0.003326717,-0.004219205
0.026112322,0.053818595,0.01033552,0.0135357175,0.051757365,0.009746818,0.016899964,0.026022986,-0.01357988,0.009009881,0.041142266,0.01413538,0.039272614,-0.0057871174,-0.0004656134,0.0029755728,-0.01807506,0.00024871802,0.024967622,0.013702128,-0.007064783,-0.03542343,-0.02305248,-0.014319735,0.02433604,0.02608479,0.0012379505,-0.040436644,0.03290627,-0.011683963,0.020352583,-0.015527814,0.010055993,0.010241135,-0.031792298,-0.012719346,0.047828276,-0.005664773,0.008955253,-0.0028447846,0.030673705,0.022232266,0.054466452,-0.010518979,-0.0047863284,0.00088825,0.030130645,0.004997764,0.020125233,-0.0043034973,0.019800173,-0.0069084894,-0.023401182,0.013894994,0.037244584,-0.016739398,-0.007134806,-0.012284113,-0.02972712,0.0012034526,0.02539955,-0.022321938,-0.021110516,-0.025984067,0.016895913,-0.020476477,0.050207444,-0.023869468,0.0027836815,-0.0017095312,-0.026130117,0.019269094,0.027013075,-0.024912117,-0.02032209,-0.037213817,0.028840473,0.03152809,0.011806155,-0.03603054,-0.00046370682,-0.0027070683,0.02625653,0.006735055,0.018030826,-0.028697073,-0.024741685,-0.00944132,-0.020959884,0.012957097,0.05569252,-0.029593384,-0.009695592,-0.008581067,-0.03894224,-0.0034312052,0.025092373,-0.013782005,-0.025516376,-0.025515418,0.0026035742,0.007856306,0.004088796,-0.03678146,-0.012262347,0.007647271,-0.009022276,-0.010179823,0.0068012658,-0.025539393,-0.048800696,0.009682791,0.009916874,0.018625364,-0.003276013,-0.033108316,-0.026158843,0.007403791,0.0067003793,-0.023014361,0.027146358,-0.026969098,-0.0046875994,0.019168233,0.003371106,-0.01492144,-0.008459665,-0.02689764,-0.012185961,0.009368627,-0.052019283,0.013285887,0.042183492,-0.028721582,-0.017278539,0.0042857868,0.0069237845,0.011620116,0.017031174,0.004778327,0.0041180677,0.009752403,-0.023765808,0.0011132646,0.03214871,-0.019000018,-0.0073402715,-0.010607851,0.011068605,-0.015435232,0.013026734,0.010157428,-0.013589971,0.0115687745,0.0024001517,0.010164055,0.02254618,-0.016129756,-0.009023861,-0.03225817,-0.054213054,-0.01903885,-0.007115756,0.0011767239,-0.004730083,0.0023864342,0.0019534717,0.018493729,0.010718751,-0.021790277,-0.008663381,0.018229393,-0.03184334,0.015463381,0.00010869425,-0.01245546,-0.009575363,0.0147000775,-0.03846885,0.01862509,0.033127856,0.009488539,-0.0029058992,-0.03151355,-0.021646895,-0.026823916,-0.0075402157,-0.013418784,0.0040429817,-8.476544e-05,0.010756122,0.013947511,0.014810187,-0.0026945027,0.011600075,0.0089964615,-0.03205329,-0.0035865726,0.03167166,0.0061217686,0.03163754,-0.023501558,-0.029727083,0.009411039,0.0015769385,-0.0089627355,-0.0040040975,0.0065417984,0.009102389,-0.010204848,0.025507566,0.016340822,-0.0074559343,-0.022256628,-0.018445633,-0.021008138,0.012875272,-0.018586284,-0.035267934,0.011261829,-0.016779933,0.010052372,0.028268596,0.024776941,-0.0034691293,0.0057302034,0.0005220709,0.0061949277,0.027392088,0.023311326,-0.008187119,0.010763545,-0.0226152,0.0052423673,-0.0037605239,-0.0011494505,-0.02359747,-0.0014292485,0.00014296277,0.007820262,0.020646362,0.03599944,-0.025166053,-0.022428216,0.009098187,0.004650406,0.010211774,0.006708551,0.014305248,-0.012367794,-0.011754174,0.0020666898,-0.012866852,0.011121046,-0.0015398237,0.021386636,-0.003455215,0.02763163,0.0043168534,0.0021031033,0.0030404218,-0.027714316,0.018845757,0.026857484,0.021935515,0.023999672,0.004723042,0.018665465,-0.028531412,0.021401783,-0.008111992,-0.014661342,0.003471406,0.020959139,-0.021912023,-0.0032035438,0.02553673,-0.005550569,-0.023573989,0.03060566,-0.002014348,0.02557648,0.024787012,-0.040433776,0.024335654,0.0019754875,0.015499457,0.01659463,0.056645133,-0.0072901514,-0.011088718,0.017868882,-0.013977966,0.060225416,0.032108735,-0.027149891,-0.0056417114,-0.01384162,-0.054154858,0.07148233,0.041676383,-0.011587263,0.021464307,0.04479099,-0.040239166,-0.0504597,-0.0024360262,0.0018907242,-0.004344421,0.018013041,-0.026836652,-0.039918803,0.030050093,-0.0070432154,0.030666616,0.016347343,-0.019224597,-0.052792113,0.032901794,0.027943643,-0.012223485,0.040296298,-0.032299086,-0.034021586,0.01960206,-0.015225688,-0.024131611,0.026674705,-0.017277898,-0.0665611,0.013005295,0.006493009,0.0028107383,0.0120356735,-0.03775048,-0.014494528,0.013608377,-0.019389793,0.0071722525,0.03792414,-0.02472017,-0.0410451,0.009926954,0.019779485,-0.006758778,0.033163067,-0.015663892,-0.050859347,0.020840319,0.018657632,-0.020337036,-0.0029086913,-0.04344791,-0.07152746,0.00842087,-0.00975857,-0.020408567,0.003173279,-0.011942429,-0.035543196,-0.00045872864,0.0059319893,-0.022884753,-0.0141628245,-0.03025428,-0.056263875,-0.0012032555,-0.0022587383,0.014849836,-0.009220708,-0.040278718,-0.07010388,-0.014230787,-0.0017861256,-0.024639282,-0.003159983,-0.030211395,-0.06484592,-0.009650318,-0.008428725,0.009661179,-0.031516474,-0.044831324,-0.046268042,-0.0027613065,0.0038582801,-0.0022601688,-0.033243947,-0.015335992,-0.04600991,-0.026359146,-0.0066586784,0.006393264,0.00986383,-0.0266683,-0.03827485,-0.030498024,0.015921477,-0.005520691,-0.018624472,-0.016859882,-0.0412436,-0.009900919,0.013083768,-0.027424129,0.0049265358,-0.034141835,-0.05597371,-0.033495504,0.00083275745,-0.01137737,-0.0137823345,-0.018723264,-0.069168195,-0.0010396162,0.010310937,0.02425351,-0.0015125249,-0.017036531,-0.05277543,-0.01361654,-0.011415458,0.016235823,-0.02157976,-0.020338226,-0.03613281,-0.051498942,4.5108503e-05,0.01879276,0.008345414,-0.01652863,-0.017403984,-0.026213199,0.010517636,-0.007541708,-0.03361192,-0.04202227,-0.059431367,-0.023453157,-0.0032672451,-0.0015614019,-0.0044274735,-0.0124308,-0.062617354,-0.04121081,-0.0020779902,0.02206829,-0.012596535,-0.03608453,-0.017309556,-0.03142592,0.0050703487,-0.023241336,0.005817155,-0.016450964,-0.039911415,-0.058291752,0.021025859,0.012904302,-0.041298226,-0.039929945,-0.052584887,-0.01669075,-0.010772498,0.02236457,0.014485063,-0.04053466,-0.016754776,-0.0399778,0.014482999,-0.027158882,0.007074137,-0.020582722,-0.022444893,-0.030408043,0.0054803183,0.020673107,-0.008282239,-0.043259982,-0.034605995,-0.053120974,0.008620095,-0.015934883,-0.008423421,-0.022468975,-0.033276338,-0.04423528,-0.011414218,-0.0047444254,0.007997533,-0.04046449,-0.039409958,-0.022582587,-0.00071145734,0.013552176,0.012312087,-0.030101903,-0.017010774,-0.08576578,-0.02459609,0.0019835108,-0.03223514,-0.047473148,-0.037837066,-0.05344913,-0.00663159,-0.018670404,-0.0069078896,-0.03823468,-0.044938397,-0.07317782,-0.012234713,-0.018150162,0.017515145,-0.033144444,-0.04664359,-0.088362515,-0.031894695,0.017108928,-0.0032819856,-0.02044629,-0.063650265,-0.09339365,-0.0097174505,0.027785402,0.0021884458,-0.014751023,-0.04407093,-0.12165252,-0.009241307,-0.031063305,-0.02525824,-0.026814392,-0.024639757,-0.14824246,-0.006546444,0.022809459,0.032370497,-0.0232195,-0.041759774,-0.13527285,-0.019795047,-0.0031127958,0.03917988,-0.03261542,-0.048733972,-0.103302404,-0.011840235,-0.010654054,0.061383303,-0.041760143,-0.03169276,-0.12795895,-0.00029972865,0.0018674625,0.012997705,-0.015144578,-0.03881045,-0.12695493,-0.0074349917,-0.03696729,0.056497596,-0.010999534,-0.03982476,-0.14326446,-0.021408059,-0.0392439,0.0332809,-0.039751034,-0.032606896,-0.16199055,-0.012847583,-0.027871378,0.04483402,-0.034329258,-0.016155459,-0.14630343,-0.025716858,-0.04475143,0.08663578,-0.031940006,-0.012804842,-0.17820686,-0.028908225,-0.062105913,0.08005142,-0.03400954,-0.067709446,-0.18033257,-0.07892041,-0.13852075,0.046740863,-0.03963681,-0.0438772,-0.156064,-0.014269847,0.11274545,-0.039571866,-0.014190722,-0.038901214
-0.01631992,-0.0062066857,-0.027222155,0.0022447724,-0.032295685,-0.016758246,-0.026274607,-0.026126638,-0.06819457,-0.03726593,0.0133438315,-0.0028973022,-0.031183852,0.016512174,0.0003612326,-0.0011249926,-0.029919041,0.018912114,-0.04504049,-0.0403038,-0.019453268,-0.0015605616,-0.007927364,0.02350193,-0.039510813,0.033745386,-0.014772131,-0.033332776,0.03555821,0.0058314134,-0.04525649,-0.017894382,-0.03188273,-0.031501655,-0.01256933,-0.010334626,-0.0070548127,-0.015632175,-0.050139904,0.008486843,-0.034590296,0.0075290943,-0.0016768978,-0.006830043,-0.02958307,0.022005755,-0.022890901,0.012619547,-0.054069854,-0.018975489,-0.019586882,-0.021157052,0.03792799,0.010120323,-0.030010844,-0.026984343,-0.024454487,0.017528286,-0.021676686,-0.048919696,-0.0020501004,-0.015856715,-0.017607458,-0.020647299,0.0014166266,0.015418552,-0.0612835,-0.0118119465,-0.006913954,-0.008481463,-0.019669585,0.020138947,-0.004353007,-0.032162905,-0.038515195,-0.013719206,0.029628558,0.009780503,0.00083253736,-0.010195408,0.017112754,0.013046842,-0.007676677,-0.036976453,-0.020982817,-0.02730025,-0.036081824,-0.021830203,0.01744939,0.019845562,-0.00678149,-0.0004902516,0.0092172725,0.010912328,0.0078648925,0.02131813,-0.04804489,-0.014507528,0.0009558523,0.020045957,0.029871883,-0.01892293,-0.04633475,-0.006507671,-0.0039706687,-0.035711646,0.028171962,0.010534734,-0.0056448597,-0.014446911,-0.040472385,0.026278669,-0.012909456,0.007107044,0.004754617,-0.010186517,-0.005109201,-0.01717822,0.023458043,-0.0185232,-0.0016353109,-0.005114459,-0.013235506,0.0016445153,-0.030618712,-0.008838768,-0.019877091,-0.020850195,0.0039791665,0.011294994,-0.028822893,-0.0099459505,-0.014869618,-0.013870537,-0.0052980743,0.00089360354,-0.006361413,0.028733922,-0.03315502,-0.020931372,-0.0060823746,0.0035199786,0.030662943,-0.003047276,-0.004461561,0.016162084,0.010439458,-0.037116323,0.02845038,-0.011201969,0.007984893,0.009527175,0.0097430535,0.013626992,0.03404599,0.018435368,-0.051881187,-0.019030843,-0.005618765,0.013559497,0.016687738,-0.026784165,-0.015850848,-0.016211784,0.00015586933,-0.0145387575,-0.008536905,0.021867195,-0.0041780975,0.033823162,0.012651703,0.0059884544,0.011166115,-0.03327474,-0.021535398,0.0013285581,-0.0018502999,-0.0030732052,0.030219568,0.02482072,-0.040588044,-0.008499885,-0.0045999084,0.006749872,0.004987376,-0.035804763,-0.02068041,0.014160681,-0.016014386,-0.008587766,0.026376389,-0.013400937,-0.0448644,0.021564,0.009401158,-0.0030885097,0.045785278,-0.009773564,-0.02356759,-0.01817608,-0.006153263,-0.03651426,-0.0070554893,-0.0024436507,-0.042249594,-0.008015034,0.018190611,-0.02779363,-0.02154106,0.017255379,-0.021915402,0.010259571,-0.007482304,0.00602616,-0.021213872,0.015058573,0.016561426,-0.011041122,0.025148433,0.011878263,0.041960783,0.003998766,-0.04332247,-0.012583696,0.024658706,-0.023571055,0.00045033413,0.013825056,0.004368514,-0.015426692,-0.0044543594,-0.0461506,-0.004361284,-0.015901413,0.0044584223,-0.0054168515,0.013663727,-0.006480561,0.03305066,0.01470917,-0.017079312,0.01660911,0.021440757,-0.03534476,-0.007757575,0.0061197295,0.030106338,0.027863113,0.029587138,-0.0111005865,0.018621882,-0.0113888,0.009935131,0.010174497,-0.01713055,-0.005252696,-0.003969408,-0.0042310823,-0.029737184,-0.016364843,0.0005749941,-0.001008203,-0.03320251,-0.013928735,0.02151385,-0.018065996,-0.018968768,-0.03361421,-0.026147109,0.003923886,0.02107495,-0.014917959,-0.013534585,-0.039281093,-0.056350008,0.039039694,0.021139182,0.007905436,-0.008240722,-0.009554487,-0.045769937,0.018793285,-0.017583776,0.005543693,-0.0067686657,-0.0063025095,0.018681588,-0.032245334,0.00021307473,-0.02164496,-0.0034574415,-0.047342237,0.0043127476,-0.0038581237,0.050857224,-0.03030716,-0.010338602,-0.0074382876,0.04827665,0.07955562,0.036554176,0.017002534,0.016176686,-0.040669296,0.035960235,0.0016073969,0.052879464,-0.015832592,-0.007381472,-0.023361515,0.034943264,0.031617254,0.02155776,0.00085270783,0.027772669,0.038197223,-0.014150611,-0.005607797,-0.008354586,-0.0016462485,0.01383709,-0.021420237,-0.004197428,0.05027167,0.009295015,0.0020451671,0.00856947,0.018440384,0.036390968,0.040243085,0.0065926365,0.012568387,-0.010432665,-0.03391469,0.00954208,0.026535803,0.02894224,-0.033578698,0.0318838,0.012990126,0.0068189977,0.0016475965,0.045489024,0.018980566,-0.021543082,-0.008825044,0.038651485,0.006304745,-0.012088145,-0.02425268,-0.00948014,0.008893336,0.0043701166,0.033004418,0.029171415,0.00023555107,0.025006525,-0.0034529236,0.009696112,-0.0096372785,0.041104108,0.00041815196,-0.030292144,0.019244974,0.00609492,-0.005496249,-0.00543404,0.0063507943,-0.02361092,-0.0043388237,0.0285567,0.008082595,0.040353097,-0.02319183,-0.0031636553,-0.038214337,-0.0011868202,0.034777556,-0.016021524,-0.019327046,0.010221173,0.012383279,-0.0128186,-0.005204917,0.047721878,0.004413447,0.0085671935,-0.02392504,0.014921775,0.014899626,0.01086624,0.010620757,-0.03891385,0.032214534,0.0017703671,0.04059382,0.013414418,0.011751993,0.011905278,0.0046978416,0.004215573,0.012682954,0.0045625027,5.752095e-06,-0.011938792,-0.024229351,0.04157328,0.002039857,0.022755979,-0.00016583252,0.006647699,-0.018535897,0.034430925,0.0020059173,0.013055285,0.009574713,-0.009860104,-0.021220595,0.006320727,0.03630425,0.038930252,-0.030308133,0.0038137857,0.025384009,0.0071105044,0.036429863,0.0017742896,0.012343098,0.023448315,-0.0053282413,0.013004145,-0.014503349,0.05758371,0.011682786,-0.0065545556,-0.0051609473,-0.008554187,-0.009635807,0.041536037,-0.023517082,-0.008635951,0.005439879,0.010351757,-0.0106810555,0.012327755,-0.028533757,-0.014763546,0.022685118,0.013529519,0.015079469,0.023313489,-0.0021595422,-0.027592171,-0.036885303,-0.011920649,0.045911245,0.0019967002,0.008405465,0.013546763,-0.02783018,0.00335417,0.0119100185,0.042124487,-0.0123429885,-0.04492846,-0.039517038,-0.011473766,0.023563532,0.04938118,-0.03551282,-0.03440395,-0.0026646208,0.025262767,0.011766322,0.04678292,-0.0063882032,0.008290551,-0.0230448,-0.0038219758,0.037550595,0.04383447,0.002715273,0.0059006033,-0.00590866,-0.012951898,-0.00663302,0.02602389,-0.0073638773,-0.021458052,-0.04624668,0.0008607622,-0.003242223,0.05042783,-0.037951507,-0.033474714,0.017678868,0.010356024,0.010445154,0.03644334,-0.01239035,0.0016449158,-0.04958396,0.028891755,0.023245588,0.016126705,-0.013427016,-0.027251987,0.017579965,-0.006566677,0.037392203,0.05059415,-0.0022197324,-0.03251931,-0.0117931515,0.009805538,0.029919546,0.0011633661,-0.020547867,-0.02124121,-0.028626619,0.0011566809,0.025002653,0.04960247,2.027343e-06,0.007107589,0.029968057,0.008955133,0.017766906,-0.017326208,-0.048192494,-0.021337362,-0.025318222,0.0014083498,0.035150535,0.035784725,-0.0063213855,-0.03809261,0.024325084,0.013164564,0.05105176,0.025767077,-0.020126635,-0.028461313,-0.016691653,0.026094237,-0.012575367,0.034894492,-0.02498997,-0.027918195,0.005956998,-0.013521461,0.00034784587,0.021385398,0.008114877,-0.0017079606,0.06114212,0.0027141906,-0.0004599368,0.047442485,0.0015546308,-0.0038617742,0.026563646,-0.0149272205,0.0062304367,0.045303456,-0.017689401,0.011825114,0.04365415,0.040022295,0.028101824,0.04939027,0.014856962,-0.0016006324,0.031235265,0.01822076,0.047472976,-0.0058473754,-0.002096543,-0.028582294,0.002941514,0.018296106,-0.0024000895,0.023577182,-0.025108965,8.220895e-05,0.052027572,0.042192027,-0.02005965,0.006445326,-0.010183636,-0.024467438,0.01034346,0.017008323,0.04213268,-0.005380181,-0.032008186,-0.0405853,0.030743213,0.039033156,0.042066667
0.09581641,-0.012835064,0.0056975232,0.0016143877,-0.036528233,0.0055358233,0.07738888,0.004529885,0.0043268744,-0.026863255,-0.02970995,0.034483716,0.059756596,-0.0488592,-0.018994419,0.01224558,0.010057023,0.033507735,0.079347044,-0.011869869,-0.010526375,0.0014513879,-0.029099824,-0.010110652,0.08013835,-0.025416898,-0.01403272,-0.027489914,0.024798404,-0.0013058359,0.055259343,-0.0007768928,0.00023276806,0.017758697,0.03093749,0.004314835,0.050691105,0.0026642082,0.0030030196,-0.028863735,-0.002315547,-0.018390777,0.08351315,0.013268704,0.009667804,0.020802505,0.01908134,0.0071041184,0.048276123,0.0022955097,0.010337947,-0.0059874826,0.015926993,0.0034958739,0.065329194,0.010930204,0.0018057418,-0.029006436,0.04214407,-0.004683048,0.073090166,-0.007398971,-0.0076687653,0.000452717,-0.0011815401,0.0018644506,0.04900643,0.014641232,0.005924653,-0.019400219,0.020072596,-0.010837053,0.048304513,-0.014668879,-0.002002465,-0.021820966,0.04803879,0.01573827,0.038930237,0.013196738,-0.0087388335,0.014115086,-0.025193376,-0.024955697,0.030515628,-0.009246721,-0.016859006,-0.02914697,0.026295502,-0.012610622,0.04730107,-0.018219631,-0.011615432,-0.019655952,-0.010725709,-0.0002307949,0.014987461,-0.02772619,-0.032090053,-0.0176175,0.009651537,-0.011186689,0.014080512,-0.016825914,-0.020786215,0.004487664,-0.012542704,0.008982713,0.0054355296,-0.016302414,-0.017334215,0.0047441497,0.04062227,-0.0050065015,0.008507803,-0.03327903,-0.018441137,0.013208804,-0.011715107,-0.04560165,0.012192512,-0.007292601,-0.0053436505,-0.019160701,0.027675817,0.0067402297,0.022067,-0.0014445162,-0.016758846,-0.0129235955,0.015129279,-0.03537738,0.031672258,-0.005311435,-0.0069863982,-0.010004803,-0.016045187,-0.051392056,0.012405496,-0.0103835985,0.012749991,0.011347544,-0.010480296,-0.013167182,0.035712786,0.029631983,-0.011621638,-0.031466372,0.032897253,-0.0052959444,0.036237124,0.0004755783,0.024076607,0.017222805,0.03493519,0.0019743403,0.01347943,0.017311255,0.0010063782,-0.023269383,0.021207124,-0.047766034,-0.011314344,0.017080376,0.0019464842,0.01295084,0.007384327,0.019418236,0.0007630749,0.00038896906,0.023998827,0.0016951538,0.041831974,-0.028687973,0.033601314,0.004528433,0.008815637,0.0014091637,0.012956956,-0.03712786,0.0014398146,0.0160063,-0.009541116,0.017060308,0.0072226576,-0.020284442,0.011634554,0.00022528924,0.0015531076,-0.026120543,0.0007535941,-0.01174199,-0.0119001735,0.0036533426,0.022611648,-0.017784413,0.012934679,-0.010804423,-0.009629046,-0.0017325429,-0.0076590753,-0.0014516378,0.053424142,0.004971246,-0.019972062,0.013682433,0.02011022,0.008043998,0.004181967,-0.01063215,0.0075313593,-0.024679843,0.007623215,0.010222659,0.040911343,0.0018091425,-0.009151729,-0.010407424,0.00511577,0.003522711,0.031647652,-0.006027242,0.007627977,-0.007996733,0.009468332,0.0044066114,0.0038052364,-0.012064286,-0.0031034017,0.008556928,0.0040541016,-0.025068173,0.04823414,-0.02640431,-0.04047502,-0.026553018,0.0063055116,-0.020135593,0.049258836,0.010538116,-0.014893545,0.019063514,-0.0007183205,0.022582643,0.039673354,-0.013152909,-0.03809932,-0.0309362,0.013570486,-0.015292215,0.021644656,-0.030249808,-0.031471685,-0.014219721,-0.013847487,-0.020623654,0.056997962,-0.00907497,-0.042614438,-0.015481042,-0.00089031697,-0.009481863,0.0376456,-0.009536594,0.00050561636,-0.019671144,-0.014787695,-0.008424487,0.03284918,7.544897e-05,-0.041153103,-0.006929182,-0.040440235,0.02458843,0.06247355,0.0013858037,-0.055950034,-0.027272098,-0.010400371,0.02306637,0.066708736,0.007597498,-0.060422853,-0.0061642854,-0.020480733,-0.01883784,0.03810808,-0.02999029,-0.03014849,0.004823558,0.0011838108,-0.0063257026,0.030087354,-0.035511218,-0.06997786,0.0010040945,-0.013552216,0.020854745,0.09204124,-0.047452398,-0.06597837,0.019138629,0.0015866298,-0.06839255,0.022749754,0.042180497,-0.009711806,0.040370893,0.004272227,-0.020532122,-0.0021703192,-0.004144122,-0.05843623,0.03406875,-0.027998185,0.017556699,0.021267312,0.0328844,-0.019288823,-0.0021101537,-0.013034856,-0.007210639,0.0041095167,-0.010471062,-0.025170023,0.022196691,-0.023103401,-0.06620734,0.027827123,0.011061551,-0.020917695,0.029068103,-0.0046559046,-0.06289813,0.009913299,0.009262201,-0.015561157,-0.009837993,0.0047598816,-0.021613082,-0.0050966255,-0.013564083,-0.03245321,-0.0032899808,0.015459154,-0.00995717,-0.0033951695,-0.021084873,0.009473193,0.008836301,0.005395066,-0.057368506,0.01921821,0.019693647,-0.0069158515,-0.012976342,0.01802247,-0.069955096,0.0020307945,0.00370691,-0.0146431355,-0.0052625295,-0.0035283766,-0.015988234,-0.006533865,0.0076317815,-1.6873375e-05,-0.004418268,0.0076106885,-0.09815506,-0.0012205488,-0.0019830698,0.0020752032,-0.019586883,-0.005299339,-0.05467816,-0.0114378575,0.0028344302,-0.027073173,-0.016192174,0.024257677,-0.042061377,0.008782876,-0.02152447,-0.0006014399,0.0074507417,-0.0022868996,-0.05104173,0.023205345,0.0019594696,-0.024060974,-0.020423593,0.01769925,-0.038574297,-0.011850029,0.0063249776,-0.007419405,0.015246,-0.0129388785,-0.08415271,-0.00706913,0.025015526,0.015705632,-0.014441825,0.01157272,-0.04062098,-0.006969288,0.024478117,0.0011123873,-0.010884858,0.0066480846,-0.029699413,-0.0075453627,0.036545023,-0.01157734,0.003364517,-0.031826917,-0.016018616,0.0031678828,0.009318815,0.019527135,-0.02784542,-0.030659609,-0.028558908,-0.002085598,0.02882441,0.024022318,-0.008149989,-0.026804643,0.00046825758,0.026240068,-0.0139758065,-0.010693264,-0.018782753,-0.023825074,-0.014922457,0.024737542,0.0033295052,-0.03182573,0.0028109052,3.98276e-05,-0.026382234,-0.0061374605,-0.0054274225,-0.022641676,-0.0011013808,-0.006608596,-0.06055481,-0.015246788,-0.0056737084,-9.471105e-05,-0.00645954,-0.029380683,-0.04346753,0.013072249,0.023967044,-0.007186689,-0.018237248,-0.007753186,-0.05785339,0.018715769,-0.020267213,-0.0038951926,0.01767055,-0.013566793,-0.0051391553,0.018029008,-0.019127905,-0.042105395,-0.0018436521,-0.022402188,-0.037307143,0.026589317,0.005358761,-8.63413e-05,0.011984353,-0.029265063,-0.041477986,0.00061700353,0.019221395,-0.038055163,-0.004936665,-0.023489945,-0.047271516,0.008187026,0.01672762,-0.034243777,-0.015535639,-0.0040448704,-0.028849076,0.0064471187,0.00094423065,-0.01403434,0.013134436,-0.027934097,-0.052343663,0.012768463,0.038538087,-0.0045442833,-0.027654454,-0.0125197,-0.034452975,-0.014853399,-0.0202648,-0.04133672,0.0123245055,-0.010241433,-0.027161865,-0.0073604835,-0.020827511,-0.027840657,0.011026153,-0.016502257,-0.013629624,0.013242319,-0.01704396,-0.035934996,-0.02914336,-0.00852541,-0.01892008,-0.017193824,0.04070688,-0.018564384,-0.047571845,-0.008078067,-0.026879692,0.004917378,0.0009454221,-0.027999435,-0.050337784,-0.053962834,-0.051368225,-0.015827,-0.010421952,-0.012613793,-0.06337157,-0.03258378,-0.015174371,0.025827605,0.031083358,-0.06245952,-0.064987965,-0.06323826,-0.044198193,0.021664964,0.000784275,-0.059804756,-0.040206898,-0.018433303,-0.073613994,-0.014214513,0.019240398,-0.022044826,-0.017872555,-0.035727154,-0.0700086,0.01605231,0.010824522,-0.05497424,-0.014978117,-0.022294521,-0.0389764,0.0018899199,-0.00013771516,-0.010728898,0.006939517,0.014720144,-0.021512447,0.0032831163,0.024939245,-0.050023243,-0.018611984,-0.015866155,-0.0067133745,-0.010978295,-0.014244461,0.024333341,0.012953474,0.047251962,0.02536709,-0.012803514,0.03443658,0.014565584,0.010058485,0.03127178,0.01098064,0.02776349,0.029226013,-0.0033357318,0.029877571,0.04909941,0.01743711,0.004758087,-0.0031165709,-0.020774743,-0.07054668,-0.03916313,0.041093495,0.026810247,-0.0069814534
0.013435585,-0.029492982,0.021400152,-0.011973716,-0.042438067,-0.012346565,0.019528786,-0.008619649,0.0028784694,-0.003008453,-0.06476092,0.0018443397,0.03785285,-0.015873445,0.009315668,0.0030242072,-0.074012436,0.0038590445,0.01581275,-0.0021025122,-0.015304501,0.0050949613,-0.06639291,0.014981716,0.04537126,-0.0025790771,-0.005809778,-0.006137844,-0.051229473,0.014045298,0.005991507,-0.0025438978,-0.019495593,-0.0024739346,-0.08715748,0.008972314,0.031248018,-0.0060577765,-0.014668611,-0.0049529234,-0.08451707,0.009761632,0.041924346,0.010257999,0.0048976005,0.0006348702,-0.07424877,0.00742381,0.012641437,0.0035796424,0.017503578,0.0012966562,-0.06558911,0.028354682,-0.0021824162,-0.0011153584,0.00042178202,-0.0018565423,-0.08795127,0.012870943,-0.018361758,-0.013995941,-0.0067338687,-0.0057881707,-0.051057395,0.032937076,0.010957858,0.0051843273,0.004931262,-0.028532417,-0.04540226,0.032403257,-0.027852325,-0.003158304,-0.008790841,-0.022903454,-0.06307121,0.010365277,-0.025134088,-0.0028249589,0.0038018946,-0.027626835,-0.047460657,0.0027001002,-0.028645668,-0.026054328,0.01934666,-0.01746475,-0.07324804,0.010475474,-0.023956591,-0.0066294987,-0.012065484,-0.016658949,-0.049519718,-0.023765976,-0.018264152,-0.00591394,0.0048935395,-0.0061379718,-0.07541663,-0.02216217,-0.050913427,-0.007509714,0.01325909,-0.029848214,-0.0455361,0.0026273646,-0.041599523,-0.007727958,0.012199724,-0.022988442,-0.072239466,-0.016130844,-0.010557194,-0.012968189,-0.01839635,-0.004019739,-0.029388797,-0.010345842,-0.04606217,-0.016299019,-0.018729204,-0.0059006913,-0.0440684,-0.0026934138,-0.034797404,0.01253178,-0.0013150759,-0.008808499,-0.060143195,-0.015829956,0.0011954496,0.018446805,-0.008807045,-0.006480873,-0.053874515,-0.024801275,-0.020073738,0.016084928,-0.011698414,0.005709446,-0.031749856,-0.014773748,-0.022051062,0.02301443,-0.011683127,0.007408194,-0.03724636,-0.028577846,-0.0077581583,0.037344087,-0.016428474,0.011419146,-0.046058297,-0.04501786,0.0029628524,0.031450555,-0.024817104,0.010606113,-0.03240183,-0.024357656,-0.009334496,0.034872808,-0.019221906,0.0033645737,-0.03322229,-0.022511445,0.0022283227,0.019820716,-0.011194765,0.005418325,-0.036033925,-0.02714996,-0.01783965,0.01600786,-0.005122261,0.0026205792,-0.06392089,-0.028634792,-0.017210033,0.003451618,-0.01619098,0.012617792,-0.05325109,-0.050724503,0.00828723,0.022216676,0.0025966452,0.0112208165,-0.061508752,-0.038046837,-0.01557637,0.01555192,0.0061751865,0.015977921,-0.02914576,-0.056472056,-0.021110278,-0.011215789,0.020345312,0.0022595532,-0.0373433,-0.039942566,0.00898967,0.0055173337,0.030315466,0.010461527,-0.044748846,-0.025514878,0.008000438,0.018151026,0.026398288,0.0071777706,-0.02498436,-0.044451218,0.0041441116,0.0079269735,0.013492587,0.009288558,-0.043713037,-0.042352837,0.022248194,0.012498972,0.010371508,-0.00045573508,-0.023829171,-0.045641743,-0.011018488,-0.0039088996,0.012178935,-0.0022425314,-0.0047610733,-0.04995748,0.02073333,-0.017360896,0.024146616,0.009636648,-0.007088171,-0.04713794,0.004564738,-0.0049033356,0.007416327,0.010472789,-0.02953296,-0.022822088,-0.0017192025,-0.00837509,0.021521267,0.021597696,-0.030291246,-0.047773797,0.0114037525,-0.015115509,0.018785767,0.020547718,-0.01627169,-0.026123993,0.008229894,0.02742693,0.010620416,0.0049212477,-0.015307348,-0.05802241,0.016895594,-0.005714496,0.02725872,0.018434905,-0.026511503,-0.04579961,0.013532269,0.020403532,0.024678668,0.015970739,-0.032606512,-0.04445498,0.024132902,-0.007657215,0.023280794,0.016788812,-0.047364898,-0.07126362,0.018205894,0.00816912,0.00028951102,0.03590247,-0.023498777,-0.038529824,-0.00625453,-0.02007079,-0.0138776265,0.030576877,-0.017681122,-0.025491651,0.0338987,-0.02309047,0.00029531523,0.02019876,-0.024350878,-0.06288698,0.06704793,-0.009255049,-0.0122634405,-0.023954915,-0.0054216264,0.0025268104,0.050580297,-0.01844367,0.01393118,-0.034552682,-0.006387092,-0.00056279113,0.04960607,0.007907613,0.0179186,-0.012363324,-0.007462262,-0.025230778,0.06411788,-0.026993845,0.015171861,-0.027793981,-0.0056935037,-0.00589293,0.06303299,-0.014670238,0.047150213,-0.046956323,-0.007976202,-0.011369266,0.087831005,0.004117543,0.03672778,-0.0226142,-0.0073945867,-0.022805866,0.07792556,0.0039995243,-0.004210022,-0.02809837,-0.0040724063,-0.012443971,0.06018351,-0.00601785,0.019576501,-0.030984871,-0.0058059986,-0.0047123022,0.06070376,0.014215025,0.013242395,-0.016203266,-0.0062188557,-0.008762503,0.053393222,0.010905526,0.011469302,-0.021926902,-0.00641069,0.0009410843,0.03148443,0.010138743,-0.0015368469,-0.04178562,-0.005587734,-0.02070121,0.036093805,0.0063452465,-0.0013270371,-0.023245245,-0.007489228,-0.014625801,0.011512778,0.014749829,0.019892452,-0.024209876,-0.0052978145,-0.017107984,0.031270143,0.008457111,0.02732595,-0.031619914,-0.0046523823,-0.0023298769,0.049638562,-0.008676206,0.008787315,-0.029984435,-0.0037698187,-0.013843507,0.04098944,0.018168304,-0.0010734916,-0.06373306,-0.0067536626,-0.006238165,0.021454023,0.008253133,-0.0059546153,-0.04585188,-0.0073177237,-0.021547241,0.03616789,0.0120085515,-0.027000945,-0.03493041,-0.0075590895,-0.021364557,0.020164717,0.029502446,-0.016696066,-0.06570038,-0.0060969274,-0.018420007,0.061716314,0.0032007175,-0.015745515,-0.05686432,-0.0055447775,-0.008659718,0.06381263,-0.00041731162,-0.01347998,-0.0465654,-0.0071129045,-0.007027022,0.02907725,0.025555069,-0.016641406,-0.054472525,-0.0045641647,-0.006473347,0.056371063,0.025750116,0.01926268,-0.059351884,-0.007151841,-0.026546774,0.031590503,0.018990329,0.006072834,-0.058201946,-0.0076374603,-0.007295618,0.03197266,0.022878516,-0.016267639,-0.04499233,-0.0037971807,-0.005604054,0.02481328,0.004203816,0.00088041095,-0.005945964,-0.0040593073,-0.024370732,0.039369725,0.004634285,0.0074771945,-0.016065812,-0.003950465,-0.012301978,0.056724247,0.016285043,-0.0105529325,-0.009541469,-0.0062674033,-0.011197615,0.05527929,-0.0061013186,0.006325485,0.0093939705,-0.0037319174,-0.026236895,0.027528465,-0.000756545,0.015083518,0.03266362,-0.005937024,-0.025934478,0.03637656,0.030202616,0.018055014,0.039097417,-0.0035929603,-0.021202035,0.041247062,0.032181386,0.008000708,0.049335584,-0.005404529,-0.01879353,0.05127392,0.005979007,0.0227132,0.04070738,-0.0067185415,-0.0052969083,0.05570543,-0.016951833,0.011820445,0.07335929,-0.0058889273,-0.024462879,0.0360061,-0.0028423541,0.012767371,0.08000699,-0.0077076247,-0.004738245,0.046578996,0.028036535,0.001595804,0.103775464,-0.006656798,-0.022947095,0.030438669,-0.014040475,0.010152706,0.07027163,-0.0075466377,-0.0037307502,0.027159974,0.022889154,0.007873231,0.09439501,-0.006277483,-0.02404617,0.036000073,0.018751757,-0.0048170313,0.08929654,-0.0072353594,-0.0029274754,0.029183127,0.0018516153,-0.01378864,0.10205413,-0.005168453,0.0024367366,0.022057196,-0.004388029,0.004386274,0.10812773,-0.0042414092,-0.016032595,-0.011140715,-0.014826424,0.03214734,0.12092386,-0.0050751236,-0.026791612,-0.0060681286,-0.0391478,-0.0011434759,0.12419703,-0.006669906,-0.015902866,-0.023273634,-0.01136892,-0.009421337,0.1392477,-0.008518786,-0.00896597,-0.022796534,-0.0056126313,-0.0015512478,0.15464331,-0.008335406,-0.013082993,-0.05666112,-0.033881336,-0.035894636,0.16544037,-0.0057630907,-0.00097114395,-0.05992506,-0.015028541,-0.020166121,0.18616416,-0.0043094694,-0.007457898,-0.06372649,-0.011085203,-0.040571347,0.20745842,-0.0073480816,-0.019144138,-0.038061097,-0.01822281,-0.058113903,0.20683508,-0.005970878,-0.015103455,-0.09320526,-0.007103527,-0.06630323,0.2239242,-0.0077436827,-0.0076401834
0.046876725,-0.014547832,0.011941441,0.014065599,0.015190066,-0.02114419,0.03362324,0.015319166,-0.003445034,0.027055498,-0.00040181106,-0.0019267758,0.03909509,-0.018894512,0.016854815,-0.011410418,0.026857834,-0.027418368,0.009440077,0.008371403,0.022212388,0.011003212,0.035858538,-0.02062033,0.0014477436,0.010707208,0.011877344,-0.0039539216,0.012046979,-0.026040297,-0.010639802,-0.03540269,-0.0064873234,-0.015424979,-0.0011772899,-0.025708387,0.03518304,0.00053027255,-0.017816858,0.006887868,0.047608342,-0.054634616,-0.013393852,-0.014100016,0.007921465,-0.0049818913,0.010312632,-0.05883725,0.027875151,-0.02376642,-0.017602941,-0.01700351,0.00520973,-0.019374892,-0.0044335173,-0.01816395,-0.0040445067,-0.014738271,0.003529758,-0.057344753,-0.016704444,-0.0054492285,-0.017433409,0.019638123,0.04168476,-0.058802497,0.034619298,-0.02697501,0.0082912175,0.011154007,0.0327766,-0.030158402,0.0083780065,0.020104004,-0.0019357973,-0.00037755503,0.0050295927,-0.059366122,-0.016360393,0.007547499,0.0118958885,0.02120116,-0.015371942,-0.03071058,0.040870212,-0.012582664,0.016985405,0.01913712,-0.006662926,-0.034253903,0.0138393305,0.007962064,-0.0015158617,0.015982734,-0.006346796,-0.056240015,0.036876835,-0.0043862415,0.028684434,-0.017818479,-0.009718808,-0.033434063,-0.014095222,0.029294312,0.03587687,0.022088578,-0.0036006654,-0.02443958,0.04666365,0.024843886,0.0104191005,-0.00215877,0.014280765,-0.07208524,0.004554033,-0.008002772,-0.00813637,-0.016778065,0.019100629,-0.04859269,0.005150284,0.019302716,-0.008905193,0.015078622,0.007953562,-0.015901688,0.04817124,0.034029122,0.0012807157,-0.015433508,0.036386356,-0.012534514,0.0065480103,-0.010495141,0.009220215,0.0066779098,0.018445613,-0.0498777,-0.011461909,0.029349577,0.021941645,0.01577191,0.034094885,-0.021693587,0.039369788,0.00066298567,0.012251599,-0.011674498,-0.0018679211,0.00796533,0.026978336,0.015464126,-0.0035170454,0.025534404,0.0010023783,-0.0050917636,-0.002680486,-0.02367282,0.002307806,0.014172623,-0.023014888,-0.028361175,0.023171084,0.009913108,-0.0007919599,0.011454244,-0.02668763,0.0043183346,0.0119849155,0.008608334,0.009576463,-0.009707358,0.016300723,-0.01000672,0.017990226,0.0145568075,-0.0011218034,0.011022623,-0.003090123,0.02803453,-0.019815285,0.005431446,-0.030342955,0.008554973,0.0062240474,0.005390356,-0.007398349,0.0072604716,0.0006522348,0.018977184,-0.0073227207,-0.00073945144,0.031332213,0.0207942,-0.0013502238,-0.002422702,0.012396141,-0.0047858804,0.016278002,-0.004711587,-0.031428184,-0.017564433,-0.016688634,-0.0042262385,0.03125717,-0.011116026,-0.018199334,-0.012633679,-0.009470149,0.027297884,0.032248735,-0.02336865,-0.005241206,0.0011366827,-0.036371335,-0.012468968,0.038422927,-0.011421438,-0.020564849,0.011998501,0.023470687,0.0062339036,0.013558917,-0.0084913,-0.030017566,0.014565782,-0.042270705,0.024906198,-0.01698869,0.004028069,-0.011962226,0.00018835619,-0.028152626,0.0032425534,-0.010089943,0.011267599,-0.0135335885,-0.005618313,-0.008834202,0.008868003,0.03626851,-0.0024984402,0.0076057115,-0.0052423365,0.021475837,-0.0334496,-0.007293761,0.006605447,-0.016595764,-0.010822271,0.025792059,0.01326771,0.013625147,0.0035070518,-0.0194329,-0.023436997,-0.006845941,-0.0006628133,0.021630907,0.0074620913,-0.008404198,0.0024503826,0.0060487106,-0.02870439,0.023045765,0.00022160517,0.003070108,-0.019350154,-0.0064039156,-0.021590088,0.030957803,0.008334883,-0.00023434866,-0.02178754,-0.009750365,0.0064578266,0.0030800141,0.03534471,0.007964643,-0.0034726583,-0.016601833,0.0008098834,0.006118101,-0.018736975,0.025726356,0.0045606936,0.048712403,0.026894901,0.04446829,-0.055653762,0.0075179553,0.0074450644,0.028913546,-0.0017885441,-6.815218e-08,-0.042957835,0.038137116,0.004630076,0.05024496,0.02190263,-0.007883166,0.0037190274,0.007964688,-0.04457988,7.1050665e-05,0.038774464,-0.0033877266,-0.05502404,-0.0056634196,0.027521674,-0.0051565743,-0.00030076105,0.016003542,-0.027638098,-0.04419433,0.015942676,0.0078043095,0.03478742,-0.024658676,-0.028280001,-0.02198982,0.005634357,-0.0066144574,0.029186716,0.008747672,0.006071638,-0.022502774,-0.021028295,-0.0062537133,0.007940086,0.010539984,-0.011707209,-0.012420917,0.0025756941,0.0143938055,0.029632755,0.025390478,0.007580395,-0.03392863,0.0011657577,0.020399207,-0.013670054,-0.030445704,0.00042915848,-0.02723166,-0.040435173,0.011489323,0.02928831,-0.038533542,0.021980075,-0.029895216,-0.020858806,0.013866209,0.035662673,0.014105828,0.018138628,-0.018797122,-0.061004125,0.012807784,0.039122898,-0.019619947,0.03188196,0.010828068,-0.033260047,0.011710276,0.044465333,-0.025519272,0.020843633,0.00045373986,-0.035944,0.0026337032,0.011339318,-0.009508516,0.05250086,0.019387225,-0.048016984,0.013439097,0.019708835,-0.014731371,0.00022494553,0.020020042,-0.021565937,0.009095929,0.04425144,-0.021184973,-0.019090429,0.04069104,0.008475727,-0.0015002629,0.01829634,0.015521527,-0.014254108,0.015025224,0.0026113978,0.009636942,0.025320418,-0.020376967,-0.0034195718,0.025798017,0.024634533,0.0053071184,0.03159495,0.020070354,-0.0018591349,-0.012532731,0.035072226,-0.0022814116,0.0062694564,-0.014998194,-0.014012868,-0.005280287,0.04118535,0.016392477,0.028414518,0.03568057,-0.0070601297,-0.011728269,0.062123675,0.009798714,-0.009471013,0.005969977,-0.021084128,-0.016923279,0.045746736,0.0018819924,0.035355806,-0.005177476,0.0052495208,-0.0064839344,0.008428156,-0.00035938944,0.0023886247,0.02491134,-0.009648836,-0.040249325,-0.010131002,0.007893502,-0.009431799,-0.0049410383,0.0358016,0.0045500207,-0.011660834,-0.0049267737,-0.004960131,-0.008238428,0.016859697,0.011102388,0.023160366,-0.0013329675,0.019689266,-0.013298725,0.033068564,0.035294425,-0.049083054,0.01537022,0.044639044,0.008386382,0.020053085,-0.011422103,-0.010497928,-0.00234237,0.028947793,0.018975664,0.008812208,0.02823822,-0.030639384,0.010909704,0.032753404,0.014067382,-0.007982851,0.017567772,-0.05140736,0.011093381,0.03539725,0.0057204505,0.0018730193,0.016574437,-0.021156829,0.013908951,0.02317636,-0.027640333,-0.016987614,0.008684997,-0.0060981405,0.0034730698,0.016896198,0.027488844,0.009551065,0.008694248,-0.04018025,-0.0007584557,-0.0012594055,0.017115049,-0.0065152007,-0.027008604,-0.03196499,-0.00046621106,0.010490531,0.015210625,-0.0006692473,-0.001402302,-0.017054396,0.0006940006,0.004172278,-0.0328864,-0.0033180914,-0.020430831,-0.017786954,0.019971658,0.04092014,0.029062431,0.008475266,0.02973053,-0.0016252875,0.014880915,-0.008611615,-0.009972856,-0.010818978,-0.01101684,-0.026699973,0.009761728,-0.008236373,0.0021265033,0.0037546277,-0.005549531,-0.064341456,0.013267195,0.012452649,0.018530875,-0.017957639,0.0044830665,-0.038372647,0.0123949405,0.02089985,0.001914417,-0.03237387,-0.00834316,-0.010274049,0.0049175066,-0.0002812794,-0.01450869,-0.010591136,-0.008441767,0.003136464,0.004425505,0.031297777,0.015074894,-0.02397794,0.01961745,-0.02818243,-0.008804087,0.017679762,0.009314368,-0.014456198,0.03671561,-0.017342284,0.009789664,0.014117343,0.007170336,2.9499568e-05,0.030395597,0.015491753,0.0058117867,0.010734542,0.001653127,-0.015930872,0.06148449,0.02398913,-0.005776622,0.04127955,0.014623414,0.016346466,0.032741465,0.04524413,0.01010985,0.037372448,0.022076514,0.012220959,0.029857893,0.049105186,0.021337343,0.008553617,0.047710806,0.015988402,0.02388774,0.014904846,0.010508099,-0.0051801223,0.0018875758,0.022346245,0.039766785,0.057474453,0.016563235,0.016280465,-0.0117282,0.008716914,-0.17629644,0.03963025,0.011068506,0.040719867
